%YAML:1.0
---
opencv_ml_svm:
   format: 3
   svmType: C_SVC
   kernel:
      type: RBF
      gamma: 0.50624999999999998
   C: 12.5
   term_criteria: { epsilon:1.1920928955078125e-07, iterations:1000 }
   var_count: 324
   class_count: 13
   class_labels: !!opencv-matrix
      rows: 13
      cols: 1
      dt: i
      data: [ 0, 1, 2, 3, 4, 5, 6, 7, 8, 9, 10, 11, 12 ]
   sv_total: 656
   support_vectors:
      - [ 0.273845822, 0.410251349, 0.410251349, 0.410251349,
          0.0743824989, 0.171307802, 0.410251349, 0.410251349,
          0.210951105, 0.140334755, 0.432502657, 0.432502657,
          0.159830675, 0.0985266492, 0.432502657, 0.432502657,
          0.432502657, 0.0737540424, 0.220080912, 0.384939313,
          0.384939313, 0.252760053, 0.296238214, 0.384939313,
          0.384939313, 0.384939313, 0.234909654, 0.250475258,
          0.397286534, 0.397286534, 0.246221393, 0.187753513,
          0.397286534, 0.397286534, 0.397286534, 0.219621941,
          0.0835553482, 0.436586857, 0.231871411, 0.110550255,
          0.486315876, 0.486315876, 0.486315876, 0.148394004,
          0.00610771682, 0.412574708, 0.447273225, 0.267883003,
          0.25425294, 0.447273225, 0.447273225, 0.164642185, 0.113821805,
          0.220649302, 0.00449421909, 0.0333254449, 0.151300296,
          0.0977707803, 0.270913482, 0.58281368, 0.58281368, 0.455563992,
          0.0179581009, 0.0432782769, 0.151852354, 0.50094372,
          0.0536015481, 0.589314163, 0.589314163, 0.137057289,
          0.025513988, 0.0367107317, 0.337782681, 0.47623083, 0.47623083,
          0.0399390012, 0.355092466, 0.0972562954, 0.376651734,
          0.328830838, 0.201032117, 0.00449421909, 0.0333254449,
          0.151300296, 0.0977707803, 0.270913482, 0.58281368, 0.58281368,
          0.455563992, 0.0179581009, 0.0432782769, 0.151852354,
          0.50094372, 0.0536015481, 0.589314163, 0.589314163,
          0.137057289, 0.025513988, 0.0367107317, 0.337782681,
          0.47623083, 0.47623083, 0.0399390012, 0.355092466,
          0.0972562954, 0.376651734, 0.328830838, 0.201032117,
          0.0192214008, 0.0318001509, 0.0545082875, 0.0159912612,
          0.028496122, 0.565225959, 0.577816904, 0.577816904,
          0.0398163795, 0.438897103, 0.438897103, 0.438897103,
          0.216623783, 0.0563710742, 0.121963456, 0.180177063, 0.3572824,
          0.438897103, 0.195141688, 0.532657623, 0.532657623,
          0.0102893217, 0.00739931362, 0.00588002987, 0.368221581,
          0.366635293, 0.344888717, 0.0154922158, 0.0124968281,
          0.00975285098, 0.0164094009, 0.0320551358, 0.0253633037,
          0.363099873, 0.655432463, 0.655432463, 0.150609344,
          0.437234968, 0.437234968, 0.437234968, 0.0583122708,
          0.00575842988, 0.116806433, 0.437234968, 0.437234968,
          0.362357676, 0.364912719, 0.434853941, 0.434853941,
          0.299102038, 0.0928303674, 0.0898181051, 0.240314662,
          0.434853941, 0.220080912, 0.384939313, 0.384939313,
          0.252760053, 0.296238214, 0.384939313, 0.384939313,
          0.384939313, 0.234909654, 0.380620837, 0.380620837,
          0.380620837, 0.280045331, 0.267744154, 0.224931315,
          0.380620837, 0.266701758, 0.380620837, 0.415481538,
          0.158696145, 0.415481538, 0.177761778, 0.207667634,
          0.226458877, 0.415481538, 0.392627984, 0.415481538,
          0.412574708, 0.447273225, 0.267883003, 0.25425294, 0.447273225,
          0.447273225, 0.164642185, 0.113821805, 0.220649302,
          0.214384913, 0.130653039, 0.0545389764, 0.566533625,
          0.566533625, 0.211079568, 0.284424841, 0.323872417,
          0.236793339, 0.0873324051, 0.249865919, 0.419623137,
          0.55911094, 0.55911094, 0.171207547, 0.185229599, 0.221131325,
          0.102674171, 0.337782681, 0.47623083, 0.47623083, 0.0399390012,
          0.355092466, 0.0972562954, 0.376651734, 0.328830838,
          0.201032117, 0.113717481, 0.0819826797, 0.163177311,
          0.384397745, 0.502327204, 0.119531788, 0.502327204,
          0.502327204, 0.172209352, 0.0268021692, 0.0242893826,
          0.0441587158, 0.686972141, 0.686972141, 0.146531731,
          0.131603718, 0.080647029, 0.0269709565, 0.337782681,
          0.47623083, 0.47623083, 0.0399390012, 0.355092466,
          0.0972562954, 0.376651734, 0.328830838, 0.201032117,
          0.113717481, 0.0819826797, 0.163177311, 0.384397745,
          0.502327204, 0.119531788, 0.502327204, 0.502327204,
          0.172209352, 0.0268021692, 0.0242893826, 0.0441587158,
          0.686972141, 0.686972141, 0.146531731, 0.131603718,
          0.080647029, 0.0269709565, 0.195141688, 0.532657623,
          0.532657623, 0.0102893217, 0.00739931362, 0.00588002987,
          0.368221581, 0.366635293, 0.344888717, 0.463870257,
          0.198711842, 0.244104818, 0.0159136541, 0.0116544589,
          0.0113671767, 0.536221087, 0.536221087, 0.323746055,
          0.442119807, 0.128872707, 0.0628929734, 0.352125943,
          0.231257841, 0.125169605, 0.442119807, 0.442119807,
          0.442119807, 0.362357676, 0.364912719, 0.434853941,
          0.434853941, 0.299102038, 0.0928303674, 0.0898181051,
          0.240314662, 0.434853941, 0.417208403, 0.214099258,
          0.0716403276, 0.132328361, 0.238823012, 0.417208403,
          0.417208403, 0.417208403, 0.417208403, 0.453965575, 0.35430178,
          0.0193033107, 0.017911166, 0.0692719966, 0.453965575,
          0.453965575, 0.453965575, 0.200261801 ]
      - [ 0.253746778, 0.501109064, 0.501109064, 0.501109064,
          0.240075052, 0.282802671, 0.137986794, 0.127213746,
          0.0666308999, 0.303675205, 0.221652985, 0.152999088,
          0.109037519, 0.358699262, 0.213081583, 0.271739215,
          0.533905625, 0.533905625, 0.480287641, 0.314123422,
          0.0752360299, 0.151388749, 0.400928229, 0.110568441,
          0.0543406941, 0.480287641, 0.480287641, 0.0463931598,
          0.11856126, 0.541301489, 0.541301489, 0.0104306899,
          0.0377057418, 0.304137796, 0.541301489, 0.0730269626,
          0.22679086, 0.295486301, 0.500251472, 0.46569109, 0.220137417,
          0.117622808, 0.149585485, 0.444666266, 0.326708257,
          0.531815767, 0.356702387, 0.0770662278, 0.0161115732,
          0.156842634, 0.103226207, 0.220134869, 0.409621179,
          0.571424901, 0.00556684146, 0.12343362, 0.483818918,
          0.483818918, 0.0364437625, 0.0296613164, 0.483818918,
          0.483818918, 0.203395575, 0.215271622, 0.218210071,
          0.449089766, 0.449089766, 0.449089766, 0.31641686, 0.392235309,
          0.156808734, 0.133995071, 0.372812003, 0.418311447,
          0.297222823, 0.398785025, 0.418311447, 0.25742349, 0.287108392,
          0.192838147, 0.271307677, 0.00556684146, 0.12343362,
          0.483818918, 0.483818918, 0.0364437625, 0.0296613164,
          0.483818918, 0.483818918, 0.203395575, 0.215271622,
          0.218210071, 0.449089766, 0.449089766, 0.449089766, 0.31641686,
          0.392235309, 0.156808734, 0.133995071, 0.372812003,
          0.418311447, 0.297222823, 0.398785025, 0.418311447, 0.25742349,
          0.287108392, 0.192838147, 0.271307677, 0.00555280177,
          0.0267247111, 0.518308282, 0.358452827, 0.027154319,
          0.0401169434, 0.518308282, 0.518308282, 0.239401221,
          0.136737108, 0.158729911, 0.598353565, 0.598353565,
          0.0447272658, 0.0794431493, 0.200660303, 0.398216873,
          0.164092109, 0.392441183, 0.464272946, 0.469055384,
          0.337476134, 0.129717335, 0.334954172, 0.326392502,
          0.140712857, 0.191047892, 0.118193276, 0.0242452305,
          0.179058909, 0.144124284, 0.0332795121, 0.230587021,
          0.540829182, 0.540829182, 0.536597967, 0.388884038, 0.10368529,
          0.39805457, 0.39805457, 0.246919081, 0.0307339672, 0.371939063,
          0.39805457, 0.39805457, 0.191726819, 0.0547281057, 0.134667918,
          0.556693673, 0.556693673, 0.0584437959, 0.0479689576,
          0.0333282351, 0.556693673, 0.480287641, 0.314123422,
          0.0752360299, 0.151388749, 0.400928229, 0.110568441,
          0.0543406941, 0.480287641, 0.480287641, 0.498611748,
          0.504401803, 0.504401803, 0.182940528, 0.133943841,
          0.0195690766, 0.134527624, 0.152962387, 0.379763246,
          0.560632408, 0.354050219, 0.169355407, 0.101793513,
          0.156127915, 0.0447756015, 0.334911704, 0.250684708,
          0.560632408, 0.531815767, 0.356702387, 0.0770662278,
          0.0161115732, 0.156842634, 0.103226207, 0.220134869,
          0.409621179, 0.571424901, 0.36342442, 0.526601613, 0.401505053,
          0.39455536, 0.247757837, 0.171137825, 0.182547823, 0.174087152,
          0.335981637, 0.323878348, 0.481428087, 0.477145195,
          0.272617579, 0.46736607, 0.00529600587, 0.114493899,
          0.112346247, 0.332988948, 0.372812003, 0.418311447,
          0.297222823, 0.398785025, 0.418311447, 0.25742349, 0.287108392,
          0.192838147, 0.271307677, 0.204957396, 0.0547668859,
          0.0828027874, 0.396371633, 0.475968897, 0.272177368,
          0.330258399, 0.475968897, 0.387335122, 0.370589763,
          0.178788498, 0.493855417, 0.50105226, 0.50105226,
          0.00361846644, 0.0124919834, 0.0454078764, 0.278321266,
          0.372812003, 0.418311447, 0.297222823, 0.398785025,
          0.418311447, 0.25742349, 0.287108392, 0.192838147, 0.271307677,
          0.204957396, 0.0547668859, 0.0828027874, 0.396371633,
          0.475968897, 0.272177368, 0.330258399, 0.475968897,
          0.387335122, 0.370589763, 0.178788498, 0.493855417, 0.50105226,
          0.50105226, 0.00361846644, 0.0124919834, 0.0454078764,
          0.278321266, 0.392441183, 0.464272946, 0.469055384,
          0.337476134, 0.129717335, 0.334954172, 0.326392502,
          0.140712857, 0.191047892, 0.608362198, 0.289427608,
          0.165608302, 0.0965668932, 0.283691257, 0.240053147,
          0.219761983, 0.362919271, 0.430336654, 0.541614592,
          0.175266847, 0.113031313, 0.188732594, 0.470979065,
          0.319977313, 0.054762017, 0.03972831, 0.541614592, 0.191726819,
          0.0547281057, 0.134667918, 0.556693673, 0.556693673,
          0.0584437959, 0.0479689576, 0.0333282351, 0.556693673,
          0.0845181942, 0.0358270779, 0.0260098483, 0.56252104,
          0.56252104, 0.289044768, 0.11104162, 0.144595638, 0.485421956,
          0.097650364, 0.0481823087, 0.051821325, 0.582728982,
          0.582728982, 0.368519783, 0.105543867, 0.195643291,
          0.339514285 ]
      - [ 0.506509721, 0.506509721, 0.214615956, 0.0321929418,
          0.217324942, 0.506509721, 0.337393612, 0.00978213269,
          0.130492479, 0.288298875, 0.467675924, 0.467675924,
          0.108315155, 0.467675924, 0.467675924, 0.154854074,
          0.0145413661, 0.0374949723, 0.359089673, 0.461154312,
          0.461154312, 0.033258684, 0.177755132, 0.0321958251,
          0.461154312, 0.225702658, 0.379179686, 0.231276944,
          0.369627804, 0.0568922199, 0.0588201694, 0.154471353,
          0.616091013, 0.616091013, 0.0515468344, 0.106694244,
          0.0490680188, 0.693879604, 0.693879604, 0.124144591,
          0.105037473, 0.0310881231, 0.00705009839, 0.00232895161,
          0.016170105, 0.000867491704, 0.568532407, 0.568532407,
          0.00578676723, 0.00539223058, 0.00239193626, 0.568532407,
          0.156735271, 0.000674700772, 0.216418192, 0.450026363,
          0.507650971, 0.195743352, 0.182335749, 0.158444539,
          0.507650971, 0.363622844, 0.0355311483, 0.445008039,
          0.445008039, 0.445008039, 0.0272998959, 0.0144331409,
          4.67210884e-05, 0.0666368753, 0.445008039, 0.445008039,
          0.0205863565, 0.547543287, 0.547543287, 0.0055649085,
          0.00193274184, 0.0012406538, 0.547543287, 0.292859137,
          0.0943113416, 0.216418192, 0.450026363, 0.507650971,
          0.195743352, 0.182335749, 0.158444539, 0.507650971,
          0.363622844, 0.0355311483, 0.445008039, 0.445008039,
          0.445008039, 0.0272998959, 0.0144331409, 4.67210884e-05,
          0.0666368753, 0.445008039, 0.445008039, 0.0205863565,
          0.547543287, 0.547543287, 0.0055649085, 0.00193274184,
          0.0012406538, 0.547543287, 0.292859137, 0.0943113416,
          0.059354119, 0.46056819, 0.46056819, 0.180103734, 0.154038712,
          0.0284881126, 0.46056819, 0.46056819, 0.293951631, 0.134947911,
          0.461035162, 0.461035162, 0.356017709, 0.0029708182,
          0.00432751421, 0.0139367515, 0.461035162, 0.461035162,
          0.400798261, 0.408214092, 0.408214092, 0.0456776656,
          0.00115000375, 0.00116418547, 0.408214092, 0.408214092,
          0.408214092, 0.111478247, 0.324730903, 0.409335375,
          0.302659929, 0.23955825, 0.0892038122, 0.274701297,
          0.488507241, 0.488507241, 0.061583057, 0.085277535,
          0.657802403, 0.657802403, 0.0358637087, 0.0483820699,
          0.0394713134, 0.220196858, 0.251571774, 0.101441287,
          0.0190748889, 0.526174366, 0.526174366, 0.3587614, 0.526174366,
          0.0739283934, 0.0625378639, 0.124203295, 0.359089673,
          0.461154312, 0.461154312, 0.033258684, 0.177755132,
          0.0321958251, 0.461154312, 0.225702658, 0.379179686,
          0.126198739, 0.0488760658, 0.107716136, 0.458813906,
          0.270010024, 0.0210887752, 0.531508863, 0.531508863,
          0.340456218, 0.148276493, 0.00852851011, 0.593007386,
          0.693193138, 0.328533441, 0.0168453474, 0.0629504323,
          0.0440312997, 0.157249421, 0.000867491704, 0.568532407,
          0.568532407, 0.00578676723, 0.00539223058, 0.00239193626,
          0.568532407, 0.156735271, 0.000674700772, 0.00227768742,
          0.0229645073, 0.0719120279, 0.0128179668, 0.0104914727,
          0.0399873815, 0.74290967, 0.657764316, 0.0209471676,
          0.012381468, 0.0997975543, 0.684402943, 0.684402943,
          0.174011126, 0.0941641256, 0.0777804554, 0.0149496654,
          0.0286343042, 0.0205863565, 0.547543287, 0.547543287,
          0.0055649085, 0.00193274184, 0.0012406538, 0.547543287,
          0.292859137, 0.0943113416, 0.422628343, 0.188127205,
          0.013286557, 0.00284321303, 0.00660451129, 0.0430933833,
          0.615026414, 0.615026414, 0.145782262, 0.380684614,
          0.140914097, 0.380684614, 0.380684614, 0.188222811,
          0.267184436, 0.380684614, 0.380684614, 0.380684614,
          0.0205863565, 0.547543287, 0.547543287, 0.0055649085,
          0.00193274184, 0.0012406538, 0.547543287, 0.292859137,
          0.0943113416, 0.422628343, 0.188127205, 0.013286557,
          0.00284321303, 0.00660451129, 0.0430933833, 0.615026414,
          0.615026414, 0.145782262, 0.380684614, 0.140914097,
          0.380684614, 0.380684614, 0.188222811, 0.267184436,
          0.380684614, 0.380684614, 0.380684614, 0.400798261,
          0.408214092, 0.408214092, 0.0456776656, 0.00115000375,
          0.00116418547, 0.408214092, 0.408214092, 0.408214092,
          0.468493313, 0.46053797, 0.000211796752, 0.000160628188,
          0.00549791381, 0.183776975, 0.468493313, 0.468493313,
          0.301600844, 0.318567812, 0.277971745, 0.306456238,
          0.105323724, 0.011435004, 0.202869073, 0.574902058,
          0.574902058, 0.0904747695, 0.101441287, 0.0190748889,
          0.526174366, 0.526174366, 0.3587614, 0.526174366, 0.0739283934,
          0.0625378639, 0.124203295, 0.195656359, 0.0411849357,
          0.0061601433, 0.00242846669, 0.234615505, 0.662176788,
          0.662176788, 0.108381659, 0.0980848446, 0.489217609,
          0.489217609, 0.0709503964, 0.00436605373, 0.0175432246,
          0.489217609, 0.489217609, 0.169559821, 0.0605551787 ]
      - [ 0.529259622, 0.529259622, 0.286167502, 0.0572043434,
          0.218093976, 0.529259622, 0.132724062, 0.041901812,
          0.0476078466, 0.438368857, 0.438368857, 0.099167183,
          0.0154460641, 0.144234791, 0.428301424, 0.112398997,
          0.438368857, 0.438368857, 0.0884316564, 0.0475077368,
          0.0570819452, 0.0577544309, 0.31764695, 0.201118827,
          0.167479038, 0.635447443, 0.635447443, 0.330160528,
          0.478883028, 0.478883028, 0.106991149, 0.372226506,
          0.478883028, 0.209164143, 0.0584840588, 0.0324727558,
          0.232314199, 0.393531233, 0.393531233, 0.331435323,
          0.393531233, 0.393531233, 0.393531233, 0.229418367,
          0.0726804957, 0.00442600762, 0.0243152659, 0.131497234,
          0.464978784, 0.464978784, 0.117384493, 0.464978784,
          0.464978784, 0.314408988, 0.0432194471, 0.45634827, 0.45634827,
          0.228749722, 0.45634827, 0.45634827, 0.30295065, 0.12665315,
          0.0203046482, 0.0118549727, 0.500276983, 0.500276983,
          0.109386243, 0.133905441, 0.148388043, 0.500276983,
          0.437552601, 0.0257813856, 0.193276346, 0.00311509194,
          0.155556113, 0.44906798, 0.44906798, 0.213013351, 0.44906798,
          0.44906798, 0.28623125, 0.0432194471, 0.45634827, 0.45634827,
          0.228749722, 0.45634827, 0.45634827, 0.30295065, 0.12665315,
          0.0203046482, 0.0118549727, 0.500276983, 0.500276983,
          0.109386243, 0.133905441, 0.148388043, 0.500276983,
          0.437552601, 0.0257813856, 0.193276346, 0.00311509194,
          0.155556113, 0.44906798, 0.44906798, 0.213013351, 0.44906798,
          0.44906798, 0.28623125, 0.0442378856, 0.443350464, 0.443350464,
          0.402841479, 0.136090517, 0.0824501067, 0.388055056,
          0.443350464, 0.256415457, 0.0787442699, 0.426446348,
          0.426446348, 0.426446348, 0.426446348, 0.0198972076,
          0.347976804, 0.300549239, 0.224276364, 0.503596365,
          0.000499351881, 0.00590664288, 0.0842953771, 0.503596365,
          0.0459961854, 0.296845406, 0.369822562, 0.503596365,
          0.0483398177, 0.13934654, 0.47283712, 0.47283712, 0.201481581,
          0.0695778057, 0.183813348, 0.47283712, 0.47283712, 0.106471844,
          0.0366203301, 0.410468608, 0.542305171, 0.542305171,
          0.178530499, 0.0693525448, 0.233585775, 0.366042852,
          0.131013215, 0.0161705185, 0.0127655035, 0.25686422,
          0.907619298, 0.183730543, 0.0481955521, 0.0459650829,
          0.213098273, 0.0884316564, 0.0475077368, 0.0570819452,
          0.0577544309, 0.31764695, 0.201118827, 0.167479038,
          0.635447443, 0.635447443, 0.0164182745, 0.0254803523,
          0.424351037, 0.466569811, 0.466569811, 0.158514544,
          0.294150531, 0.466569811, 0.22278598, 0.0998442546,
          0.0451368205, 0.310249656, 0.568177462, 0.568177462,
          0.0824150965, 0.22575438, 0.372137845, 0.210166931,
          0.00442600762, 0.0243152659, 0.131497234, 0.464978784,
          0.464978784, 0.117384493, 0.464978784, 0.464978784,
          0.314408988, 0.00890885666, 0.0545899868, 0.0847655311,
          0.095669426, 0.150374636, 0.0940957218, 0.677749693,
          0.677749693, 0.153885901, 0.0220373683, 0.026357146,
          0.536395907, 0.536395907, 0.418700725, 0.0796508193,
          0.402930886, 0.256968677, 0.0893368423, 0.193276346,
          0.00311509194, 0.155556113, 0.44906798, 0.44906798,
          0.213013351, 0.44906798, 0.44906798, 0.28623125, 0.50075382,
          0.00554755423, 0.037420921, 0.103945956, 0.400183737,
          0.190006867, 0.50075382, 0.185067683, 0.50075382, 0.644506335,
          0.00510979583, 0.0951592252, 0.0626557097, 0.246149585,
          0.0877678394, 0.121048003, 0.258526802, 0.644506335,
          0.193276346, 0.00311509194, 0.155556113, 0.44906798,
          0.44906798, 0.213013351, 0.44906798, 0.44906798, 0.28623125,
          0.50075382, 0.00554755423, 0.037420921, 0.103945956,
          0.400183737, 0.190006867, 0.50075382, 0.185067683, 0.50075382,
          0.644506335, 0.00510979583, 0.0951592252, 0.0626557097,
          0.246149585, 0.0877678394, 0.121048003, 0.258526802,
          0.644506335, 0.503596365, 0.000499351881, 0.00590664288,
          0.0842953771, 0.503596365, 0.0459961854, 0.296845406,
          0.369822562, 0.503596365, 0.57531178, 0.0149248699,
          0.000338696584, 0.0197244231, 0.57531178, 0.0257806778,
          0.00341980462, 0.00399221247, 0.57531178, 0.494752467,
          0.0264886748, 0.00734076835, 0.0256037638, 0.494752467,
          0.15824683, 0.34947601, 0.334861249, 0.494752467, 0.131013215,
          0.0161705185, 0.0127655035, 0.25686422, 0.907619298,
          0.183730543, 0.0481955521, 0.0459650829, 0.213098273,
          0.311960757, 0.112894371, 0.00131951401, 0.114093177,
          0.906191945, 0.0929043144, 0.0133715291, 0.0238878094,
          0.193159401, 0.497668564, 0.497668564, 0.0236638468,
          0.0904280469, 0.497668564, 0.415148944, 0.242738411,
          0.0576961413, 0.0931172445 ]
      - [ 0.526914954, 0.526914954, 0.142138794, 0.124094434,
          0.353567362, 0.526914954, 0.0222837105, 0.0021473486,
          0.0265689101, 0.420256466, 0.39754793, 0.0454422273,
          0.0248783547, 0.549082637, 0.595645487, 0.0179877952,
          0.00926459115, 0.00373290782, 0.121948011, 0.468819201,
          0.468819201, 0.272967249, 0.468819201, 0.468819201,
          0.143572688, 0.0764654353, 0.0175788719, 0.265203565,
          0.413600504, 0.128693953, 0.0260562859, 0.432038009,
          0.498162806, 0.498162806, 0.217758149, 0.0773133561,
          0.356971949, 0.502396643, 0.231221244, 0.113617636,
          0.439253718, 0.502396643, 0.183669388, 0.224781945,
          0.138460055, 0.0644277185, 0.512727261, 0.512727261,
          0.246961147, 0.0467043258, 0.138068601, 0.480551183,
          0.367566645, 0.129155949, 0.112625666, 0.330547988,
          0.310442448, 0.0507113822, 0.0801935196, 0.143108487,
          0.608854413, 0.608854413, 0.0686268732, 0.405653059,
          0.405653059, 0.172313794, 0.394632667, 0.405653059,
          0.313037902, 0.159068078, 0.31325075, 0.308927268, 0.177255183,
          0.428548396, 0.428548396, 0.428548396, 0.428548396,
          0.197075307, 0.143974498, 0.338508189, 0.235647336,
          0.112625666, 0.330547988, 0.310442448, 0.0507113822,
          0.0801935196, 0.143108487, 0.608854413, 0.608854413,
          0.0686268732, 0.405653059, 0.405653059, 0.172313794,
          0.394632667, 0.405653059, 0.313037902, 0.159068078, 0.31325075,
          0.308927268, 0.177255183, 0.428548396, 0.428548396,
          0.428548396, 0.428548396, 0.197075307, 0.143974498,
          0.338508189, 0.235647336, 0.0964775681, 0.0343698859,
          0.142304823, 0.248752639, 0.111189105, 0.0575757101,
          0.543530583, 0.543530583, 0.543530583, 0.431675524,
          0.228441775, 0.122867391, 0.275530428, 0.415435076,
          0.282493889, 0.202653408, 0.431675524, 0.431675524,
          0.179670736, 0.472262919, 0.472262919, 0.472262919,
          0.188613072, 0.0976764485, 0.263553292, 0.404290795,
          0.126006082, 0.0270635244, 0.00696694059, 0.0793651417,
          0.565463603, 0.16723609, 0., 0.00764324795, 0.565463603,
          0.565463603, 0.0459313206, 0.0599340387, 0.0370472148,
          0.564911008, 0.0637539551, 0.0239135288, 0.0176745746,
          0.575804949, 0.575804949, 0.270631522, 0.41272074, 0.41272074,
          0.41272074, 0.0650242195, 0.035607107, 0.255827159, 0.41272074,
          0.41272074, 0.121948011, 0.468819201, 0.468819201, 0.272967249,
          0.468819201, 0.468819201, 0.143572688, 0.0764654353,
          0.0175788719, 0.231318936, 0.360834301, 0.360834301,
          0.360834301, 0.360834301, 0.340929538, 0.360834301,
          0.360834301, 0.213179097, 0.224141642, 0.218318239,
          0.390194178, 0.390194178, 0.390194178, 0.291956663,
          0.227384046, 0.390194178, 0.390194178, 0.0644277185,
          0.512727261, 0.512727261, 0.246961147, 0.0467043258,
          0.138068601, 0.480551183, 0.367566645, 0.129155949,
          0.218221068, 0.346770883, 0.346770883, 0.346770883,
          0.346770883, 0.327359945, 0.346770883, 0.346770883,
          0.346770883, 0.368291497, 0.0831019804, 0.149691015,
          0.390680939, 0.390680939, 0.390680939, 0.260743588,
          0.390680939, 0.390680939, 0.177255183, 0.428548396,
          0.428548396, 0.428548396, 0.428548396, 0.197075307,
          0.143974498, 0.338508189, 0.235647336, 0.374269456,
          0.374269456, 0.374269456, 0.297495723, 0.374269456,
          0.374269456, 0.199199855, 0.16616489, 0.374269456, 0.423971236,
          0.0371223353, 0.112442091, 0.348609716, 0.423971236,
          0.417574942, 0.132422984, 0.359242767, 0.423971236,
          0.177255183, 0.428548396, 0.428548396, 0.428548396,
          0.428548396, 0.197075307, 0.143974498, 0.338508189,
          0.235647336, 0.374269456, 0.374269456, 0.374269456,
          0.297495723, 0.374269456, 0.374269456, 0.199199855, 0.16616489,
          0.374269456, 0.423971236, 0.0371223353, 0.112442091,
          0.348609716, 0.423971236, 0.417574942, 0.132422984,
          0.359242767, 0.423971236, 0.179670736, 0.472262919,
          0.472262919, 0.472262919, 0.188613072, 0.0976764485,
          0.263553292, 0.404290795, 0.126006082, 0.336977959,
          0.336977959, 0.336977959, 0.336977959, 0.336977959,
          0.333627135, 0.300743818, 0.336977959, 0.336977959,
          0.354059547, 0.354059547, 0.354059547, 0.354059547,
          0.354059547, 0.354059547, 0.0931837633, 0.332072496,
          0.354059547, 0.270631522, 0.41272074, 0.41272074, 0.41272074,
          0.0650242195, 0.035607107, 0.255827159, 0.41272074, 0.41272074,
          0.387677282, 0.387677282, 0.387677282, 0.387677282,
          0.177696228, 0.217440173, 0.375414461, 0.157691434,
          0.387677282, 0.404808044, 0.0937808529, 0.275811762,
          0.211768493, 0.387439519, 0.404808044, 0.404808044,
          0.246283218, 0.404808044 ]
      - [ 0.416773409, 0.416773409, 0.0352057591, 0.0162754282,
          0.0363919809, 0.416773409, 0.416773409, 0.416773409,
          0.352856249, 0.482999802, 0.482999802, 0.130006611,
          0.0491505191, 0.169978842, 0.482999802, 0.482999802,
          0.0903245509, 0.0751792416, 0.38748306, 0.552940547,
          0.552940547, 0.0764128715, 0.243007317, 0.341195762,
          0.153910741, 0.0745004788, 0.149344757, 0.239981085,
          0.139710739, 0.226334631, 0.216493651, 0.0432051644,
          0.542887449, 0.542887449, 0.429831117, 0.20807831, 0.253697693,
          0.415575713, 0.469846457, 0.10171774, 0.208372042, 0.469846457,
          0.469846457, 0.175525039, 0.106770173, 0.00219983375,
          0.683483064, 0.683483064, 0.0078391768, 0.00524710771,
          0.00827137846, 0.232526079, 0.0678888261, 0.00626194431,
          0.133482561, 0.323077857, 0.188349426, 0.151943296,
          0.0373700745, 0.4712708, 0.541755974, 0.541755974,
          0.0577839911, 0.438378423, 0.438378423, 0.438378423,
          0.0111394245, 0.00229013385, 0.0787290558, 0.168568075,
          0.438378423, 0.438378423, 0.21434015, 0.587999523, 0.587999523,
          0.00668440387, 0.00125044666, 0.00822298322, 0.253335416,
          0.244696036, 0.36404869, 0.133482561, 0.323077857, 0.188349426,
          0.151943296, 0.0373700745, 0.4712708, 0.541755974, 0.541755974,
          0.0577839911, 0.438378423, 0.438378423, 0.438378423,
          0.0111394245, 0.00229013385, 0.0787290558, 0.168568075,
          0.438378423, 0.438378423, 0.21434015, 0.587999523, 0.587999523,
          0.00668440387, 0.00125044666, 0.00822298322, 0.253335416,
          0.244696036, 0.36404869, 0.0580743402, 0.154807091, 0.2263515,
          0.495834112, 0.364700258, 0.171718121, 0.495834112,
          0.495834112, 0.128168032, 0.11654871, 0.562091708, 0.562091708,
          0.368169934, 0.0159391854, 0.0181555767, 0.127525583,
          0.312277377, 0.314637154, 0.429221541, 0.429221541,
          0.429221541, 0.222129166, 0.00866522174, 0.010893831,
          0.158182129, 0.429221541, 0.429221541, 0.103380807,
          0.0841411129, 0.383385539, 0.383385539, 0.383385539,
          0.383385539, 0.383385539, 0.383385539, 0.310637563,
          0.0890955105, 0.0838354826, 0.482826144, 0.482826144,
          0.0799684972, 0.0409147665, 0.199142918, 0.482826144,
          0.482826144, 0.096485123, 0.0727012157, 0.639269352,
          0.639269352, 0.0987024233, 0.363294035, 0.044848267,
          0.0499408804, 0.124345839, 0.38748306, 0.552940547,
          0.552940547, 0.0764128715, 0.243007317, 0.341195762,
          0.153910741, 0.0745004788, 0.149344757, 0.291896611,
          0.264240205, 0.44543457, 0.136441439, 0.126000598,
          0.0368219465, 0.49728328, 0.49728328, 0.333414823, 0.051857166,
          0.0396085158, 0.549182832, 0.549182832, 0.367948204,
          0.0544726364, 0.460321754, 0.191282228, 0.0146977752,
          0.00219983375, 0.683483064, 0.683483064, 0.0078391768,
          0.00524710771, 0.00827137846, 0.232526079, 0.0678888261,
          0.00626194431, 0.00292168837, 0.210882545, 0.476420522,
          0.00339744496, 0.0103619276, 0.0265046675, 0.620973289,
          0.579478145, 0.0109242955, 0.014139669, 0.172593653,
          0.521167159, 0.521167159, 0.0580023304, 0.121697515,
          0.521167159, 0.362080961, 0.0261533465, 0.21434015,
          0.587999523, 0.587999523, 0.00668440387, 0.00125044666,
          0.00822298322, 0.253335416, 0.244696036, 0.36404869,
          0.228832766, 0.396583408, 0.344380468, 0.00575489318,
          0.00244718883, 0.0109851593, 0.564792752, 0.564792752,
          0.167265728, 0.431455612, 0.431455612, 0.235102415,
          0.0973935872, 0.0108393431, 0.00663754297, 0.431455612,
          0.431455612, 0.431455612, 0.21434015, 0.587999523, 0.587999523,
          0.00668440387, 0.00125044666, 0.00822298322, 0.253335416,
          0.244696036, 0.36404869, 0.228832766, 0.396583408, 0.344380468,
          0.00575489318, 0.00244718883, 0.0109851593, 0.564792752,
          0.564792752, 0.167265728, 0.431455612, 0.431455612,
          0.235102415, 0.0973935872, 0.0108393431, 0.00663754297,
          0.431455612, 0.431455612, 0.431455612, 0.429221541,
          0.429221541, 0.429221541, 0.222129166, 0.00866522174,
          0.010893831, 0.158182129, 0.429221541, 0.429221541,
          0.431988955, 0.431988955, 0.115006268, 0.00221143849,
          0.000205224176, 0.241881922, 0.431988955, 0.431988955,
          0.421294183, 0.312451392, 0.41026473, 0.0567772537,
          0.0130723827, 0.0017102852, 0.326742709, 0.539394081,
          0.539394081, 0.191363826, 0.096485123, 0.0727012157,
          0.639269352, 0.639269352, 0.0987024233, 0.363294035,
          0.044848267, 0.0499408804, 0.124345839, 0.225258186,
          0.0831674263, 0.0768072978, 0.119644374, 0.0805181712,
          0.67234844, 0.67234844, 0.0226061549, 0.0657005385,
          0.487418741, 0.487418741, 0.136567414, 0.0352549106,
          0.0861278698, 0.487418741, 0.487418741, 0.0772874206,
          0.107418954 ]
      - [ 0.16203922, 0.0993121639, 0.145108417, 0.395573884,
          0.395573884, 0.395573884, 0.395573884, 0.395573884,
          0.395573884, 0.14671348, 0.30113098, 0.372420281, 0.372420281,
          0.372420281, 0.372420281, 0.372420281, 0.372420281,
          0.227801383, 0.415316343, 0.415316343, 0.415316343,
          0.392818987, 0.415316343, 0.201801136, 0.0516914278,
          0.122060075, 0.305449605, 0.361702085, 0.334350646,
          0.177605495, 0.18236734, 0.0870664492, 0.412576526,
          0.412576526, 0.412576526, 0.412576526, 0.364578247,
          0.364578247, 0.313677102, 0.229500785, 0.333945036,
          0.364578247, 0.344687521, 0.288609773, 0.364578247,
          0.362860978, 0.254243582, 0.362860978, 0.362860978,
          0.362860978, 0.362860978, 0.295177221, 0.233659849,
          0.362860978, 0.0876174346, 0.417517036, 0.417517036,
          0.305105507, 0.101112612, 0.417517036, 0.417517036,
          0.417517036, 0.115051679, 0.297605246, 0.378475577,
          0.378475577, 0.378475577, 0.0517234616, 0.213335827,
          0.378475577, 0.378475577, 0.378475577, 0.141454861,
          0.221857965, 0.407277644, 0.407277644, 0.19680649, 0.242059693,
          0.407277644, 0.407277644, 0.407277644, 0.0876174346,
          0.417517036, 0.417517036, 0.305105507, 0.101112612,
          0.417517036, 0.417517036, 0.417517036, 0.115051679,
          0.297605246, 0.378475577, 0.378475577, 0.378475577,
          0.0517234616, 0.213335827, 0.378475577, 0.378475577,
          0.378475577, 0.141454861, 0.221857965, 0.407277644,
          0.407277644, 0.19680649, 0.242059693, 0.407277644, 0.407277644,
          0.407277644, 0.100015357, 0.254463881, 0.396072447,
          0.396072447, 0.22067675, 0.308470726, 0.387223989, 0.396072447,
          0.396072447, 0.0525350384, 0.12509267, 0.475358069,
          0.475358069, 0.249088809, 0.0574521795, 0.0873885453,
          0.475358069, 0.475358069, 0.433864594, 0.0216031019,
          0.131461561, 0.433864594, 0.433864594, 0.0562488623,
          0.183196187, 0.433864594, 0.433864594, 0.0672493652,
          0.139135778, 0.116191931, 0.419199616, 0.419199616, 0.40198949,
          0.30646646, 0.419199616, 0.419199616, 0.36855635, 0.36855635,
          0.36855635, 0.36855635, 0.273532987, 0.230708823, 0.230799109,
          0.36855635, 0.36855635, 0.432677954, 0.196474493, 0.10329397,
          0.432677954, 0.432677954, 0.0689195395, 0.0748677477,
          0.432677954, 0.432677954, 0.415316343, 0.415316343,
          0.415316343, 0.392818987, 0.415316343, 0.201801136,
          0.0516914278, 0.122060075, 0.305449605, 0.352054983,
          0.274880111, 0.259502053, 0.470080853, 0.470080853, 0.03712954,
          0.027214596, 0.251821965, 0.470080853, 0.365243912,
          0.359974235, 0.365243912, 0.365243912, 0.365243912,
          0.105042294, 0.257945389, 0.349548578, 0.365243912,
          0.362860978, 0.254243582, 0.362860978, 0.362860978,
          0.362860978, 0.362860978, 0.295177221, 0.233659849,
          0.362860978, 0.472446531, 0.0904825404, 0.233130962,
          0.472446531, 0.472446531, 0.0125675956, 0.0014366454,
          0.199401632, 0.472446531, 0.133952439, 0.0360688381,
          0.0236795414, 0.493365675, 0.493365675, 0.0354101621,
          0.0193590634, 0.493365675, 0.493365675, 0.141454861,
          0.221857965, 0.407277644, 0.407277644, 0.19680649, 0.242059693,
          0.407277644, 0.407277644, 0.407277644, 0.432437807,
          0.0634111091, 0.37077114, 0.457143933, 0.457143933,
          0.179689229, 0.00327928411, 0.0877405256, 0.457143933,
          0.105060108, 0.160582513, 0.160775781, 0.444428355,
          0.444428355, 0.212664798, 0.312401682, 0.444428355,
          0.444428355, 0.141454861, 0.221857965, 0.407277644,
          0.407277644, 0.19680649, 0.242059693, 0.407277644, 0.407277644,
          0.407277644, 0.432437807, 0.0634111091, 0.37077114,
          0.457143933, 0.457143933, 0.179689229, 0.00327928411,
          0.0877405256, 0.457143933, 0.105060108, 0.160582513,
          0.160775781, 0.444428355, 0.444428355, 0.212664798,
          0.312401682, 0.444428355, 0.444428355, 0.433864594,
          0.0216031019, 0.131461561, 0.433864594, 0.433864594,
          0.0562488623, 0.183196187, 0.433864594, 0.433864594,
          0.471080989, 0.00516413245, 0.0256438907, 0.435735375,
          0.471080989, 0.303336799, 0.00756296283, 0.216616675,
          0.471080989, 0.362383723, 0.362383723, 0.20650059, 0.185696468,
          0.362383723, 0.362383723, 0.362383723, 0.362383723,
          0.362383723, 0.432677954, 0.196474493, 0.10329397, 0.432677954,
          0.432677954, 0.0689195395, 0.0748677477, 0.432677954,
          0.432677954, 0.509241045, 0.0657129809, 0.0943424329,
          0.226828009, 0.509241045, 0.35620892, 0.0977260917,
          0.125817597, 0.509241045, 0.401203543, 0.238810673,
          0.163131922, 0.128601849, 0.401203543, 0.401203543,
          0.384143561, 0.323090822, 0.401203543 ]
      - [ 0.25383842, 0.0612802953, 0.0475138202, 0.183353677,
          0.399845868, 0.487096459, 0.487096459, 0.139297932,
          0.487096459, 0.165079027, 0.163915887, 0.285368383,
          0.0828921795, 0.641946316, 0.641946316, 0.156591877,
          0.00991557632, 0.0485334285, 0.400361389, 0.400361389,
          0.400361389, 0.124574184, 0.400361389, 0.400361389,
          0.105491593, 0.182814837, 0.366722941, 0.065797925,
          0.195511997, 0.0331891477, 0.0309285019, 0.061294917,
          0.686561704, 0.686561704, 0.0438046642, 0.0111348052,
          0.341807663, 0.45611316, 0.45611316, 0.0339726582, 0.277808875,
          0.45611316, 0.342121273, 0.167662084, 0.176081449,
          0.0327957831, 0.633410156, 0.633410156, 0.0232026111,
          0.0144806486, 0.0346449949, 0.394871473, 0.173425004,
          0.047281459, 0.0362527147, 0.477090299, 0.181996047,
          0.00307741505, 0.0195245203, 0.429946601, 0.552869081,
          0.49133262, 0.0105000902, 0.451541156, 0.451541156,
          0.451541156, 0.0351264141, 0.0463400856, 0.14987725,
          0.165915579, 0.35575217, 0.451541156, 0.176177993, 0.560147226,
          0.560147226, 0.0152043365, 0.00300124404, 0.0198562592,
          0.356052995, 0.235256389, 0.391259789, 0.0362527147,
          0.477090299, 0.181996047, 0.00307741505, 0.0195245203,
          0.429946601, 0.552869081, 0.49133262, 0.0105000902,
          0.451541156, 0.451541156, 0.451541156, 0.0351264141,
          0.0463400856, 0.14987725, 0.165915579, 0.35575217, 0.451541156,
          0.176177993, 0.560147226, 0.560147226, 0.0152043365,
          0.00300124404, 0.0198562592, 0.356052995, 0.235256389,
          0.391259789, 0.048875723, 0.126078784, 0.170156509,
          0.00365226436, 0.0477413088, 0.047890842, 0.560529053,
          0.560529053, 0.560529053, 0.17774874, 0.500910044, 0.500910044,
          0.500910044, 0.0864709392, 0.0240359362, 0.0622837804,
          0.217798099, 0.388972849, 0.413638264, 0.413638264,
          0.413638264, 0.413638264, 0.162001714, 0.0254759863,
          0.114245936, 0.316921443, 0.413638264, 0.203857809,
          0.139264032, 0.165312424, 0.00674470142, 0.0694851875,
          0.0462108999, 0.160611719, 0.660424411, 0.660424411,
          0.128505394, 0.0498783886, 0.304899037, 0.530195236,
          0.198180363, 0.00918380171, 0.00770735275, 0.530195236,
          0.530195236, 0.310173422, 0.0627838001, 0.178111017,
          0.56435895, 0.438495278, 0.175008744, 0.0129471067,
          0.0491493978, 0.56435895, 0.400361389, 0.400361389,
          0.400361389, 0.124574184, 0.400361389, 0.400361389,
          0.105491593, 0.182814837, 0.366722941, 0.155898616,
          0.0926989019, 0.0670608133, 0.377813995, 0.42902562,
          0.281646103, 0.42902562, 0.42902562, 0.42902562, 0.171026349,
          0.0956577286, 0.422330379, 0.422330379, 0.422330379,
          0.191430405, 0.406142831, 0.422330379, 0.205745861,
          0.0327957831, 0.633410156, 0.633410156, 0.0232026111,
          0.0144806486, 0.0346449949, 0.394871473, 0.173425004,
          0.047281459, 0.0721135587, 0.146365106, 0.22711657,
          0.0220565517, 0.0162390266, 0.051171843, 0.67408514,
          0.67408514, 0.0539912172, 0.360972404, 0.303650081,
          0.360972404, 0.360972404, 0.360972404, 0.15462707, 0.360972404,
          0.360972404, 0.313805968, 0.176177993, 0.560147226,
          0.560147226, 0.0152043365, 0.00300124404, 0.0198562592,
          0.356052995, 0.235256389, 0.391259789, 0.505807579,
          0.361449331, 0.185604796, 0.00303222728, 0.00120544771,
          0.016480092, 0.513266981, 0.513266981, 0.216263056,
          0.440151423, 0.408363968, 0.0431062207, 0.189513355,
          0.0622299053, 0.110738926, 0.440151423, 0.440151423,
          0.440151423, 0.176177993, 0.560147226, 0.560147226,
          0.0152043365, 0.00300124404, 0.0198562592, 0.356052995,
          0.235256389, 0.391259789, 0.505807579, 0.361449331,
          0.185604796, 0.00303222728, 0.00120544771, 0.016480092,
          0.513266981, 0.513266981, 0.216263056, 0.440151423,
          0.408363968, 0.0431062207, 0.189513355, 0.0622299053,
          0.110738926, 0.440151423, 0.440151423, 0.440151423,
          0.413638264, 0.413638264, 0.413638264, 0.413638264,
          0.162001714, 0.0254759863, 0.114245936, 0.316921443,
          0.413638264, 0.422651023, 0.289824426, 0.104233578,
          0.0629957095, 0.0614599101, 0.422651023, 0.422651023,
          0.422651023, 0.422651023, 0.386478901, 0.177058086,
          0.0337454677, 0.1264956, 0.0993439257, 0.4973571, 0.4973571,
          0.4973571, 0.212640017, 0.310173422, 0.0627838001, 0.178111017,
          0.56435895, 0.438495278, 0.175008744, 0.0129471067,
          0.0491493978, 0.56435895, 0.574457824, 0.12592791,
          0.0400350057, 0.258858085, 0.330377102, 0.574457824,
          0.274912953, 0.0596744567, 0.248001412, 0.488850564,
          0.488850564, 0.113061629, 0.0660460144, 0.241138846,
          0.488850564, 0.379983664, 0.141175017, 0.196422964 ]
      - [ 0.437468827, 0.437468827, 0.351741731, 0.218481272,
          0.0920979232, 0.437468827, 0.437468827, 0.0674341843,
          0.213608399, 0.370937824, 0.370937824, 0.370937824,
          0.370937824, 0.352241457, 0.370937824, 0.308658034,
          0.0263624564, 0.297120929, 0.507675827, 0.0409768857,
          0.153168976, 0.4208, 0.439940989, 0.0419115648, 0.0102415355,
          0.286073685, 0.507675827, 0.359721035, 0.359721035,
          0.359721035, 0.296562463, 0.0515958145, 0.359721035,
          0.359721035, 0.359721035, 0.359721035, 0.0563028008,
          0.402377278, 0.402377278, 0.402377278, 0.113833897,
          0.329345345, 0.402377278, 0.402377278, 0.248689458,
          0.078843385, 0.441068679, 0.505378187, 0.505378187,
          0.104010209, 0.0919713676, 0.0556369349, 0.254077464,
          0.443230033, 0.0381721631, 0.487594277, 0.487594277,
          0.144445181, 0.0159706473, 0.0362372585, 0.487594277,
          0.487594277, 0.142294258, 0.0921046659, 0.165677518,
          0.466372013, 0.466372013, 0.15066728, 0.139326826, 0.466372013,
          0.466372013, 0.217452079, 0.186166361, 0.0758453682,
          0.43562296, 0.65216434, 0.487279207, 0.201909348, 0.0792460218,
          0.183745429, 0.140506685, 0.0381721631, 0.487594277,
          0.487594277, 0.144445181, 0.0159706473, 0.0362372585,
          0.487594277, 0.487594277, 0.142294258, 0.0921046659,
          0.165677518, 0.466372013, 0.466372013, 0.15066728, 0.139326826,
          0.466372013, 0.466372013, 0.217452079, 0.186166361,
          0.0758453682, 0.43562296, 0.65216434, 0.487279207, 0.201909348,
          0.0792460218, 0.183745429, 0.140506685, 0.0204006508,
          0.0714334697, 0.559804738, 0.559804738, 0.00765037723,
          0.00972806569, 0.184908301, 0.559804738, 0.12001133,
          0.376718909, 0.0490476899, 0.222656026, 0.339518696,
          0.142325148, 0.070482187, 0.414951265, 0.494208336,
          0.494208336, 0.50455457, 0.0210988484, 0.0901813284,
          0.50455457, 0.343393654, 0.133692011, 0.0250814203,
          0.293658435, 0.50455457, 0.0215959083, 2.79682554e-05,
          0.460449904, 0.504532635, 0.0528309196, 0.0014117898,
          0.126601204, 0.504532635, 0.504532635, 0.0873324275,
          0.00616616756, 0.0874006748, 0.59990257, 0.59990257,
          0.00989186298, 0.0117273396, 0.202700466, 0.466494411,
          0.428563416, 0.0136047769, 0.0148448665, 0.325946689,
          0.507705331, 0.507705331, 0.000784918433, 0.103202768,
          0.422416061, 0.507675827, 0.0409768857, 0.153168976, 0.4208,
          0.439940989, 0.0419115648, 0.0102415355, 0.286073685,
          0.507675827, 0.036320243, 0.00413814606, 0.182065159,
          0.532699764, 0.260001779, 0.0143588837, 0.202686906,
          0.532699764, 0.532699764, 0.0135808056, 0.138214394,
          0.464067549, 0.464067549, 0.228743345, 0.229328439,
          0.464067549, 0.464067549, 0.0986264497, 0.078843385,
          0.441068679, 0.505378187, 0.505378187, 0.104010209,
          0.0919713676, 0.0556369349, 0.254077464, 0.443230033,
          0.0317517184, 0.0102345943, 0.0472867265, 0.278026819,
          0.116425738, 0.0279118903, 0.338211358, 0.626250148,
          0.626250148, 0.0684581473, 0.300079048, 0.407561898,
          0.321754426, 0.342489243, 0.0919457823, 0.49159798, 0.49159798,
          0.147083417, 0.186166361, 0.0758453682, 0.43562296, 0.65216434,
          0.487279207, 0.201909348, 0.0792460218, 0.183745429,
          0.140506685, 0.142743528, 0.095271118, 0.0934988409,
          0.484815419, 0.484815419, 0.116691001, 0.484815419,
          0.484815419, 0.0562386438, 0.298067987, 0.4030689, 0.454737872,
          0.260723352, 0.227251008, 0.0489710458, 0.454737872,
          0.454737872, 0.0420893393, 0.186166361, 0.0758453682,
          0.43562296, 0.65216434, 0.487279207, 0.201909348, 0.0792460218,
          0.183745429, 0.140506685, 0.142743528, 0.095271118,
          0.0934988409, 0.484815419, 0.484815419, 0.116691001,
          0.484815419, 0.484815419, 0.0562386438, 0.298067987, 0.4030689,
          0.454737872, 0.260723352, 0.227251008, 0.0489710458,
          0.454737872, 0.454737872, 0.0420893393, 0.50455457,
          0.0210988484, 0.0901813284, 0.50455457, 0.343393654,
          0.133692011, 0.0250814203, 0.293658435, 0.50455457,
          0.354162544, 0.354162544, 0.257798672, 0.354162544,
          0.354162544, 0.257110387, 0.333629936, 0.354162544,
          0.354162544, 0.260766834, 0.36001581, 0.386856198, 0.386856198,
          0.345341772, 0.386856198, 0.386856198, 0.27455318, 0.072479248,
          0.428563416, 0.0136047769, 0.0148448665, 0.325946689,
          0.507705331, 0.507705331, 0.000784918433, 0.103202768,
          0.422416061, 0.382843047, 0.382843047, 0.0369294286,
          0.0467405915, 0.382843047, 0.382843047, 0.382843047,
          0.382843047, 0.336472869, 0.440146536, 0.440146536,
          0.168425217, 0.0673584118, 0.127083957, 0.351511836,
          0.440146536, 0.440146536, 0.219254091 ]
      - [ 0.48722744, 0.48722744, 0.2333204, 0.0197835248, 0.3113451,
          0.48722744, 0.347205043, 0.0712297112, 0.0746419579,
          0.0962599292, 0.48778531, 0.48778531, 0.180022761, 0.48778531,
          0.48778531, 0.0236014016, 0.0326728784, 0.00956082996,
          0.350967139, 0.494547099, 0.494547099, 0.158011019,
          0.324788481, 0.0422899909, 0.0539976768, 0.0547087416,
          0.494547099, 0.265609026, 0.215343595, 0.104079798,
          0.106717937, 0.203328043, 0.618549347, 0.618549347,
          0.199015886, 0.0923336744, 0.0517513901, 0.678196549,
          0.678196549, 0.200540125, 0.114762805, 0.0896189883,
          0.082357876, 0.0393697992, 0.029984327, 0.0192880034,
          0.658693731, 0.658693731, 0.0225300137, 0.0111098867,
          0.00552463206, 0.344170064, 0.0774736777, 0.0134377005,
          0.116398171, 0.367341936, 0.386265218, 0.0567363426,
          0.146511152, 0.272666276, 0.534681022, 0.534681022,
          0.161777452, 0.0204249267, 0.701638877, 0.701638877,
          0.0332169309, 0.0154165272, 0.00241670781, 0.0221272185,
          0.0632346123, 0.0463612936, 0.00298219896, 0.572353542,
          0.572353542, 0.0209802482, 0.00766283367, 0.0309728682,
          0.572353542, 0.0992603078, 0.0141186574, 0.116398171,
          0.367341936, 0.386265218, 0.0567363426, 0.146511152,
          0.272666276, 0.534681022, 0.534681022, 0.161777452,
          0.0204249267, 0.701638877, 0.701638877, 0.0332169309,
          0.0154165272, 0.00241670781, 0.0221272185, 0.0632346123,
          0.0463612936, 0.00298219896, 0.572353542, 0.572353542,
          0.0209802482, 0.00766283367, 0.0309728682, 0.572353542,
          0.0992603078, 0.0141186574, 0.0978969187, 0.162801534,
          0.146241158, 0.0215546004, 0.0236420538, 0.0312592909,
          0.204661965, 0.667821527, 0.667821527, 0.0394523218,
          0.700604618, 0.700604618, 0.0197361074, 0.00842630025,
          0.0247902032, 0.0389378443, 0.0658706576, 0.0531585105,
          0.0137969041, 0.561294138, 0.561294138, 0.0286214035,
          0.014653489, 0.020976251, 0.561294138, 0.218109831,
          0.00233722012, 0.0412823185, 0.0474307314, 0.0863132179,
          0.0145704281, 0.00384409027, 0.0187931005, 0.0808929875,
          0.698034465, 0.698034465, 0.189884141, 0.473376721,
          0.473376721, 0.216400653, 0.125994518, 0.0073870346,
          0.0107426159, 0.473376721, 0.473376721, 0.0703897253,
          0.424595743, 0.424595743, 0.424595743, 0.424595743,
          0.224266604, 0.424595743, 0.160516351, 0.115477532,
          0.350967139, 0.494547099, 0.494547099, 0.158011019,
          0.324788481, 0.0422899909, 0.0539976768, 0.0547087416,
          0.494547099, 0.238507986, 0.0704116225, 0.0272325948,
          0.351993412, 0.34961465, 0.173472211, 0.46780321, 0.46780321,
          0.46780321, 0.283919543, 0.0233784169, 0.252205729,
          0.604949653, 0.437785089, 0.089037694, 0.443595201, 0.1212271,
          0.268653601, 0.0192880034, 0.658693731, 0.658693731,
          0.0225300137, 0.0111098867, 0.00552463206, 0.344170064,
          0.0774736777, 0.0134377005, 0.0185746234, 0.0398259051,
          0.0331873596, 0.0267076083, 0.0112905195, 0.13875562,
          0.946428418, 0.267446697, 0.0133042978, 0.0237280373,
          0.057962928, 0.537495434, 0.537495434, 0.228292316,
          0.250806779, 0.537495434, 0.0916998461, 0.0239837244,
          0.00298219896, 0.572353542, 0.572353542, 0.0209802482,
          0.00766283367, 0.0309728682, 0.572353542, 0.0992603078,
          0.0141186574, 0.0296598971, 0.0428580604, 0.00435486482,
          0.00705084344, 0.00282321312, 0.09660732, 0.947881341,
          0.281971902, 0.0207410697, 0.467264116, 0.229030818,
          0.233615577, 0.279568374, 0.145170867, 0.149381444,
          0.481722176, 0.290105224, 0.481722176, 0.00298219896,
          0.572353542, 0.572353542, 0.0209802482, 0.00766283367,
          0.0309728682, 0.572353542, 0.0992603078, 0.0141186574,
          0.0296598971, 0.0428580604, 0.00435486482, 0.00705084344,
          0.00282321312, 0.09660732, 0.947881341, 0.281971902,
          0.0207410697, 0.467264116, 0.229030818, 0.233615577,
          0.279568374, 0.145170867, 0.149381444, 0.481722176,
          0.290105224, 0.481722176, 0.0137969041, 0.561294138,
          0.561294138, 0.0286214035, 0.014653489, 0.020976251,
          0.561294138, 0.218109831, 0.00233722012, 0.0293135047,
          0.0652124882, 0.0136232534, 0.00188130513, 0.0140637755,
          0.0506146364, 0.870313764, 0.475126296, 0.00798982568,
          0.392292678, 0.397986293, 0.255100042, 0.207671344,
          0.302543372, 0.397986293, 0.397986293, 0.282420009,
          0.295726687, 0.0703897253, 0.424595743, 0.424595743,
          0.424595743, 0.424595743, 0.224266604, 0.424595743,
          0.160516351, 0.115477532, 0.602854431, 0.0479613766,
          0.00299472897, 0.0254166704, 0.063396506, 0.207096145,
          0.602854431, 0.409383565, 0.222835451, 0.680895984,
          0.680895984, 0.0627155453, 0.0380218066, 0.0423871689,
          0.0274261218, 0.0740051791, 0.136962131, 0.183849752 ]
      - [ 0.501018405, 0.501018405, 0.501018405, 0.274285704,
          0.125592187, 0.190106675, 0.294747949, 0.137320533,
          0.0951728299, 0.643732011, 0.643732011, 0.114656501,
          0.0303099081, 0.0855118483, 0.208547965, 0.14821066,
          0.0449945107, 0.275555789, 0.458328694, 0.31013155,
          0.110216565, 0.0913216844, 0.458328694, 0.458328694,
          0.194196776, 0.0279249698, 0.458328694, 0.0877411291,
          0.690233827, 0.690233827, 0.0962231234, 0.0209774077,
          0.123308048, 0.0839645639, 0.0227149669, 0.00979089364,
          0.383509964, 0.383509964, 0.383509964, 0.036273811,
          0.143020079, 0.383509964, 0.383509964, 0.303181022,
          0.383509964, 0.398218125, 0.288486362, 0.167574868, 0.28300482,
          0.398218125, 0.398218125, 0.335717529, 0.240015373,
          0.398218125, 0.0108299349, 0.453644186, 0.623470902,
          0.623470902, 0.0129840458, 0.086108245, 0.0504902378,
          0.015837362, 0.00703951251, 0.140729487, 0.293775946,
          0.423763335, 0.423763335, 0.179784015, 0.423763335,
          0.423763335, 0.363743633, 0.0820034593, 0.382946223,
          0.382946223, 0.0873501748, 0.382946223, 0.382946223,
          0.382946223, 0.229403317, 0.236709818, 0.382946223,
          0.0108299349, 0.453644186, 0.623470902, 0.623470902,
          0.0129840458, 0.086108245, 0.0504902378, 0.015837362,
          0.00703951251, 0.140729487, 0.293775946, 0.423763335,
          0.423763335, 0.179784015, 0.423763335, 0.423763335,
          0.363743633, 0.0820034593, 0.382946223, 0.382946223,
          0.0873501748, 0.382946223, 0.382946223, 0.382946223,
          0.229403317, 0.236709818, 0.382946223, 0.384120256,
          0.494511664, 0.494511664, 0.494511664, 0.231787726,
          0.193967193, 0.0763736442, 0.118552603, 0.0514845923,
          0.0207837764, 0.0453128442, 0.305698186, 0.512815118,
          0.512815118, 0.150583789, 0.265201181, 0.512815118,
          0.130371302, 0.25606066, 0.106874615, 0.100756191, 0.456713438,
          0.456713438, 0.249600157, 0.107925966, 0.456713438,
          0.456713438, 0.352772266, 0.352772266, 0.352772266,
          0.352772266, 0.352772266, 0.352772266, 0.352772266,
          0.270942122, 0.227876648, 0.364120573, 0.150031835,
          0.330187798, 0.364120573, 0.364120573, 0.364120573,
          0.364120573, 0.263298213, 0.364120573, 0.350914508, 0.35633561,
          0.35633561, 0.35633561, 0.35633561, 0.35633561, 0.35633561,
          0.0776749104, 0.324676514, 0.458328694, 0.31013155,
          0.110216565, 0.0913216844, 0.458328694, 0.458328694,
          0.194196776, 0.0279249698, 0.458328694, 0.369593084,
          0.369593084, 0.369593084, 0.204718024, 0.369593084,
          0.369593084, 0.240713254, 0.277237892, 0.369593084,
          0.163116544, 0.300545037, 0.32199657, 0.101234131,
          0.0594595671, 0.0283286367, 0.0963839591, 0.612125695,
          0.612125695, 0.398218125, 0.288486362, 0.167574868, 0.28300482,
          0.398218125, 0.398218125, 0.335717529, 0.240015373,
          0.398218125, 0.353921264, 0.353921264, 0.353921264,
          0.353921264, 0.353921264, 0.353921264, 0.235002697,
          0.253802627, 0.353921264, 0.268743545, 0.370930463,
          0.429325312, 0.230730414, 0.0552898571, 0.0334007218,
          0.429325312, 0.429325312, 0.418961942, 0.382946223,
          0.382946223, 0.0873501748, 0.382946223, 0.382946223,
          0.382946223, 0.229403317, 0.236709818, 0.382946223,
          0.338597834, 0.273043036, 0.364265084, 0.364265084,
          0.364265084, 0.317805976, 0.20667319, 0.364265084, 0.364265084,
          0.170024499, 0.276458055, 0.500219584, 0.299314886,
          0.0584189966, 0.500219584, 0.500219584, 0.203071892,
          0.0690456554, 0.382946223, 0.382946223, 0.0873501748,
          0.382946223, 0.382946223, 0.382946223, 0.229403317,
          0.236709818, 0.382946223, 0.338597834, 0.273043036,
          0.364265084, 0.364265084, 0.364265084, 0.317805976, 0.20667319,
          0.364265084, 0.364265084, 0.170024499, 0.276458055,
          0.500219584, 0.299314886, 0.0584189966, 0.500219584,
          0.500219584, 0.203071892, 0.0690456554, 0.25606066,
          0.106874615, 0.100756191, 0.456713438, 0.456713438,
          0.249600157, 0.107925966, 0.456713438, 0.456713438,
          0.455046862, 0.455046862, 0.224590883, 0.222260207,
          0.455046862, 0.455046862, 0.141220734, 0.0888662264,
          0.198753446, 0.0516507365, 0.308562309, 0.209862813,
          0.0510950647, 0.623072624, 0.623072624, 0.269720703,
          0.00554256514, 0.00534461299, 0.350914508, 0.35633561,
          0.35633561, 0.35633561, 0.35633561, 0.35633561, 0.35633561,
          0.0776749104, 0.324676514, 0.193851709, 0.0821795836,
          0.0615627766, 0.231429398, 0.544763863, 0.544763863,
          0.544763863, 0.0341255069, 0.0375608988, 0.00680844439,
          0.303118706, 0.482369035, 0.447992146, 0.482369035,
          0.482369035, 0.0665881932, 0.00850510225, 0.00345527753 ]
      - [ 0.559099376, 0.559099376, 0.135457098, 0.0369265415,
          0.128621683, 0.559099376, 0.131494641, 0.0184193421,
          0.0524859652, 0.340446323, 0.407877654, 0.21348615,
          0.0565566011, 0.574640214, 0.574640214, 0.0305819176,
          0.016418796, 0.0398938954, 0.356713623, 0.356713623,
          0.356713623, 0.356713623, 0.356713623, 0.29587844, 0.281599581,
          0.356713623, 0.257149577, 0.235320002, 0.340263039,
          0.350951821, 0.105168022, 0.237272128, 0.50085789, 0.50085789,
          0.354432106, 0.077320762, 0.416012526, 0.355830848,
          0.416012526, 0.267444283, 0.416012526, 0.416012526,
          0.00801233388, 0.0319469087, 0.323034912, 0.353257358,
          0.353257358, 0.353257358, 0.353257358, 0.304499328,
          0.353257358, 0.173826113, 0.353257358, 0.353257358,
          0.0290717408, 0.245834544, 0.531945884, 0.0535640679,
          0.0544013306, 0.0356083028, 0.562239826, 0.562239826,
          0.10399729, 0.102837093, 0.529714048, 0.529714048, 0.254340112,
          0.529714048, 0.204565778, 0.115722239, 0.119334564,
          0.0904168412, 0.36619854, 0.36619854, 0.36619854, 0.36619854,
          0.36619854, 0.36619854, 0.241189018, 0.133211985, 0.340316951,
          0.0290717408, 0.245834544, 0.531945884, 0.0535640679,
          0.0544013306, 0.0356083028, 0.562239826, 0.562239826,
          0.10399729, 0.102837093, 0.529714048, 0.529714048, 0.254340112,
          0.529714048, 0.204565778, 0.115722239, 0.119334564,
          0.0904168412, 0.36619854, 0.36619854, 0.36619854, 0.36619854,
          0.36619854, 0.36619854, 0.241189018, 0.133211985, 0.340316951,
          0.0239053965, 0.054305017, 0.258623391, 0.539457262,
          0.0150444414, 0.0208932701, 0.224723548, 0.539457262,
          0.539457262, 0.0998012349, 0.340384781, 0.533550084,
          0.100958869, 0.00890449341, 0.0216637366, 0.0638850331,
          0.533550084, 0.533550084, 0.390983522, 0.390983522,
          0.390983522, 0.390983522, 0.15685235, 0.174396157, 0.154494882,
          0.390983522, 0.390983522, 0.0844752938, 0.0684798956,
          0.465298414, 0.502432287, 0.0876741484, 0.0290547069,
          0.0284287594, 0.502432287, 0.502432287, 0.0513352901,
          0.0918411389, 0.257852614, 0.549720109, 0.0997660458,
          0.010834422, 0.0174660571, 0.549720109, 0.549720109,
          0.349608243, 0.395303816, 0.395303816, 0.395303816,
          0.176911026, 0.214108199, 0.123933323, 0.395303816,
          0.395303816, 0.356713623, 0.356713623, 0.356713623,
          0.356713623, 0.356713623, 0.29587844, 0.281599581, 0.356713623,
          0.257149577, 0.17403394, 0.223681763, 0.386435091, 0.386435091,
          0.386435091, 0.140803337, 0.386435091, 0.386435091,
          0.386435091, 0.170273304, 0.050048966, 0.228618085,
          0.424374908, 0.424374908, 0.107361071, 0.424374908,
          0.424374908, 0.424374908, 0.353257358, 0.353257358,
          0.353257358, 0.353257358, 0.304499328, 0.353257358,
          0.173826113, 0.353257358, 0.353257358, 0.290546715,
          0.119708538, 0.320117474, 0.367943376, 0.367943376,
          0.367943376, 0.343787372, 0.367943376, 0.367943376,
          0.182071552, 0.137955204, 0.185848624, 0.396140277,
          0.396140277, 0.396140277, 0.396140277, 0.396140277,
          0.353108078, 0.36619854, 0.36619854, 0.36619854, 0.36619854,
          0.36619854, 0.36619854, 0.241189018, 0.133211985, 0.340316951,
          0.408643812, 0.142471895, 0.101450726, 0.408643812,
          0.408643812, 0.297555983, 0.204545647, 0.408643812,
          0.408643812, 0.236082301, 0.213082105, 0.102186352,
          0.204477102, 0.410489321, 0.410489321, 0.410489321,
          0.410489321, 0.410489321, 0.36619854, 0.36619854, 0.36619854,
          0.36619854, 0.36619854, 0.36619854, 0.241189018, 0.133211985,
          0.340316951, 0.408643812, 0.142471895, 0.101450726,
          0.408643812, 0.408643812, 0.297555983, 0.204545647,
          0.408643812, 0.408643812, 0.236082301, 0.213082105,
          0.102186352, 0.204477102, 0.410489321, 0.410489321,
          0.410489321, 0.410489321, 0.410489321, 0.390983522,
          0.390983522, 0.390983522, 0.390983522, 0.15685235, 0.174396157,
          0.154494882, 0.390983522, 0.390983522, 0.346871108,
          0.321132094, 0.226211593, 0.346871108, 0.346871108,
          0.346871108, 0.346871108, 0.346871108, 0.346871108,
          0.124297284, 0.182027698, 0.127782136, 0.110532589,
          0.0820796639, 0.502610743, 0.502610743, 0.502610743,
          0.391485363, 0.349608243, 0.395303816, 0.395303816,
          0.395303816, 0.176911026, 0.214108199, 0.123933323,
          0.395303816, 0.395303816, 0.342421025, 0.236417517,
          0.128128171, 0.32187593, 0.388131827, 0.388131827, 0.388131827,
          0.316813499, 0.388131827, 0.38845706, 0.38845706, 0.0156214582,
          0.00971181691, 0.355482548, 0.38845706, 0.38845706, 0.33899647,
          0.38845706 ]
      - [ 0.535591543, 0.535591543, 0.535591543, 0.142573431,
          0.0741238371, 0.0535784774, 0.243745089, 0.0584051423,
          0.206304342, 0.669723928, 0.669723928, 0.0572593808,
          0.0323025398, 0.0762145072, 0.125366196, 0.0147358198,
          0.0352559611, 0.262576044, 0.511968434, 0.185306445,
          0.0371708274, 0.0116384095, 0.407206297, 0.511968434,
          0.0817380399, 0.0140770264, 0.511968434, 0.167624801,
          0.692115605, 0.692115605, 0.0166506935, 0.01374966,
          0.0386079811, 0.0684748515, 0.0161387194, 0.0062179002,
          0.422463328, 0.422463328, 0.191787779, 0.0744292364,
          0.159049571, 0.422463328, 0.422463328, 0.342171013,
          0.311734885, 0.362115711, 0.189805552, 0.362115711,
          0.362115711, 0.362115711, 0.362115711, 0.352658808,
          0.221858293, 0.362115711, 0.00408103643, 0.689920366,
          0.689920366, 0.19719629, 0.0138883861, 0.0343141109,
          0.0260493085, 0.0101083871, 0.00885083992, 0.342387378,
          0.373848349, 0.373848349, 0.134776801, 0.364531428,
          0.373848349, 0.373848349, 0.170806885, 0.373848349,
          0.462070316, 0.120064475, 0.104194745, 0.251898557,
          0.462070316, 0.462070316, 0.11951182, 0.1958078, 0.462070316,
          0.00408103643, 0.689920366, 0.689920366, 0.19719629,
          0.0138883861, 0.0343141109, 0.0260493085, 0.0101083871,
          0.00885083992, 0.342387378, 0.373848349, 0.373848349,
          0.134776801, 0.364531428, 0.373848349, 0.373848349,
          0.170806885, 0.373848349, 0.462070316, 0.120064475,
          0.104194745, 0.251898557, 0.462070316, 0.462070316, 0.11951182,
          0.1958078, 0.462070316, 0.0290082972, 0.436923116, 0.632930577,
          0.632930577, 0.0126797026, 0.00641328655, 0.015787527,
          0.0163514186, 0.00409307983, 0.0610412396, 0.242963254,
          0.433006674, 0.433006674, 0.124590069, 0.398418844,
          0.433006674, 0.433006674, 0.093155764, 0.350322604,
          0.350322604, 0.316011935, 0.350322604, 0.350322604,
          0.350322604, 0.193790853, 0.350322604, 0.350322604,
          0.147242382, 0.484332889, 0.484332889, 0.484332889,
          0.484332889, 0.177130654, 0.0440958962, 0.0317620337,
          0.0289875232, 0.00216129841, 0.00645356951, 0.148338988,
          0.562957466, 0.562957466, 0.067867443, 0.10596709, 0.520516336,
          0.227405623, 0.277185082, 0.0685453042, 0.0727815852,
          0.488282502, 0.488282502, 0.145759165, 0.028573418,
          0.413490444, 0.488282502, 0.511968434, 0.185306445,
          0.0371708274, 0.0116384095, 0.407206297, 0.511968434,
          0.0817380399, 0.0140770264, 0.511968434, 0.402833134,
          0.246243075, 0.372110814, 0.162525356, 0.402833134,
          0.402833134, 0.101962209, 0.333113641, 0.402833134,
          0.181667745, 0.19737123, 0.209856734, 0.0425313562,
          0.0502359197, 0.0434792563, 0.0810984969, 0.657509446,
          0.657509446, 0.362115711, 0.189805552, 0.362115711,
          0.362115711, 0.362115711, 0.362115711, 0.352658808,
          0.221858293, 0.362115711, 0.339629978, 0.339629978,
          0.339629978, 0.339629978, 0.339629978, 0.339629978,
          0.339629978, 0.271695405, 0.339629978, 0.115095638,
          0.367025673, 0.462594271, 0.2817114, 0.0466313511,
          0.0404311344, 0.34967652, 0.462594271, 0.462594271,
          0.462070316, 0.120064475, 0.104194745, 0.251898557,
          0.462070316, 0.462070316, 0.11951182, 0.1958078, 0.462070316,
          0.401591986, 0.192028478, 0.388770252, 0.401591986,
          0.401591986, 0.0903851315, 0.0634236261, 0.388168007,
          0.401591986, 0.43146202, 0.396427065, 0.43146202, 0.22242333,
          0.0368853025, 0.200324833, 0.43146202, 0.43146202,
          0.0541776307, 0.462070316, 0.120064475, 0.104194745,
          0.251898557, 0.462070316, 0.462070316, 0.11951182, 0.1958078,
          0.462070316, 0.401591986, 0.192028478, 0.388770252,
          0.401591986, 0.401591986, 0.0903851315, 0.0634236261,
          0.388168007, 0.401591986, 0.43146202, 0.396427065, 0.43146202,
          0.22242333, 0.0368853025, 0.200324833, 0.43146202, 0.43146202,
          0.0541776307, 0.350322604, 0.350322604, 0.316011935,
          0.350322604, 0.350322604, 0.350322604, 0.193790853,
          0.350322604, 0.350322604, 0.242728591, 0.345470548,
          0.345470548, 0.345470548, 0.319658726, 0.345470548,
          0.345470548, 0.345470548, 0.345470548, 0.0438865833,
          0.26097852, 0.546186924, 0.125622615, 0.0949688628,
          0.546186924, 0.546186924, 0.0688254461, 0.00348879513,
          0.277185082, 0.0685453042, 0.0727815852, 0.488282502,
          0.488282502, 0.145759165, 0.028573418, 0.413490444,
          0.488282502, 0.489595979, 0.489595979, 0.0856771991,
          0.113155626, 0.489595979, 0.489595979, 0.100520149,
          0.0250709932, 0.0735896751, 0.0277582873, 0.183694616,
          0.0940208361, 0.0250900425, 0.670413733, 0.670413733,
          0.224526063, 0.00154965173, 0. ]
      - [ 0.430641174, 0.430641174, 0.0723666698, 0.00120806636,
          0.0206007734, 0.430641174, 0.430641174, 0.430641174,
          0.250552207, 0.48439762, 0.48439762, 0.0725393593,
          0.00760902092, 0.0720213503, 0.184396163, 0.109950036,
          0.48439762, 0.48439762, 0.101675078, 0.0768712237,
          0.0671296716, 0.0198292974, 0.256139278, 0.108535454,
          0.201298282, 0.653612971, 0.653612971, 0.204084814,
          0.459167778, 0.459167778, 0.162317812, 0.288497567,
          0.459167778, 0.459167778, 0.0271485951, 0.0103810551,
          0.234232128, 0.384174526, 0.384174526, 0.384174526,
          0.384174526, 0.384174526, 0.384174526, 0.226233572,
          0.0676420182, 0.00828262605, 0.00895195175, 0.0368506238,
          0.472664893, 0.472664893, 0.245275006, 0.472664893,
          0.472664893, 0.199910462, 0.0268845819, 0.427746028,
          0.427746028, 0.316224545, 0.427746028, 0.427746028,
          0.390258938, 0.101876512, 0.0214224942, 0.0084303068,
          0.504838049, 0.504838049, 0.129149094, 0.130333796, 0.15424934,
          0.504838049, 0.414588362, 0.0309796706, 0.322523206,
          0.00901092403, 0.0265641157, 0.426939547, 0.385772198,
          0.243020758, 0.426939547, 0.426939547, 0.369074464,
          0.0268845819, 0.427746028, 0.427746028, 0.316224545,
          0.427746028, 0.427746028, 0.390258938, 0.101876512,
          0.0214224942, 0.0084303068, 0.504838049, 0.504838049,
          0.129149094, 0.130333796, 0.15424934, 0.504838049, 0.414588362,
          0.0309796706, 0.322523206, 0.00901092403, 0.0265641157,
          0.426939547, 0.385772198, 0.243020758, 0.426939547,
          0.426939547, 0.369074464, 0.0152348056, 0.412076801,
          0.512126863, 0.329124272, 0.0828928649, 0.114352405,
          0.41139099, 0.512126863, 0.0527748093, 0.0799423754,
          0.415660203, 0.434092909, 0.434092909, 0.434092909,
          0.0293330774, 0.350965679, 0.315603554, 0.165971994,
          0.497141123, 0.00420182711, 0.0016663128, 0.0639408678,
          0.497141123, 0.157284349, 0.299020916, 0.367866874,
          0.497141123, 0.0132902879, 0.0415846407, 0.212296233,
          0.25717181, 0.203802034, 0.102030523, 0.485203594, 0.545012176,
          0.545012176, 0.0500329137, 0.0869302452, 0.472507656,
          0.530688524, 0.530688524, 0.181205124, 0.0765920803,
          0.19550474, 0.34812665, 0.178612411, 0.00132576202,
          0.00446334155, 0.105683379, 0.797316432, 0.532699168,
          0.057742998, 0.0465322472, 0.154816955, 0.101675078,
          0.0768712237, 0.0671296716, 0.0198292974, 0.256139278,
          0.108535454, 0.201298282, 0.653612971, 0.653612971,
          0.0259089153, 0.0493194535, 0.128667548, 0.462235212,
          0.462235212, 0.0904277861, 0.447921634, 0.462235212,
          0.354864448, 0.154726014, 0.0504590683, 0.438914508,
          0.438914508, 0.436861396, 0.0464525335, 0.0744316131,
          0.438914508, 0.438914508, 0.00828262605, 0.00895195175,
          0.0368506238, 0.472664893, 0.472664893, 0.245275006,
          0.472664893, 0.472664893, 0.199910462, 0.020089034,
          0.0490505658, 0.262901217, 0.0942645296, 0.117024414,
          0.198514968, 0.647489071, 0.647489071, 0.145382613,
          0.127000585, 0.102766864, 0.464091122, 0.464091122,
          0.279385895, 0.128772512, 0.451357305, 0.44673726, 0.199942067,
          0.322523206, 0.00901092403, 0.0265641157, 0.426939547,
          0.385772198, 0.243020758, 0.426939547, 0.426939547,
          0.369074464, 0.531663477, 0.0279352069, 0.138069734,
          0.081546776, 0.145785019, 0.172791854, 0.531663477,
          0.262847155, 0.531663477, 0.649932384, 0.102506183,
          0.0075466102, 0.0163402036, 0.0421603471, 0.0402175486,
          0.185042098, 0.316575646, 0.649932384, 0.322523206,
          0.00901092403, 0.0265641157, 0.426939547, 0.385772198,
          0.243020758, 0.426939547, 0.426939547, 0.369074464,
          0.531663477, 0.0279352069, 0.138069734, 0.081546776,
          0.145785019, 0.172791854, 0.531663477, 0.262847155,
          0.531663477, 0.649932384, 0.102506183, 0.0075466102,
          0.0163402036, 0.0421603471, 0.0402175486, 0.185042098,
          0.316575646, 0.649932384, 0.497141123, 0.00420182711,
          0.0016663128, 0.0639408678, 0.497141123, 0.157284349,
          0.299020916, 0.367866874, 0.497141123, 0.571803987,
          0.000778872636, 0.0013639091, 0.0141958883, 0.571803987,
          0.114693247, 0.00268120971, 0.00670014462, 0.571803987,
          0.470520794, 0.0353446454, 0.00921799336, 0.00212343736,
          0.470520794, 0.279341966, 0.404515326, 0.296862811,
          0.470520794, 0.178612411, 0.00132576202, 0.00446334155,
          0.105683379, 0.797316432, 0.532699168, 0.057742998,
          0.0465322472, 0.154816955, 0.416687399, 0.121408992,
          0.0589629337, 0.0729490593, 0.846805096, 0.231569707,
          0.0377294272, 0.0470431447, 0.141573891, 0.485557407,
          0.485557407, 0.0842069611, 0.027684927, 0.485557407,
          0.485557407, 0.1950804, 0.0507590957, 0.0599678829 ]
      - [ 0.0705577806, 0.0204053782, 0.0133598037, 0.0541090146,
          0.54059428, 0.320957214, 0.54059428, 0.54059428, 0.0797509402,
          0.413102359, 0.178451389, 0.490795106, 0.490795106,
          0.490795106, 0.0972465724, 0.0521137677, 0.0577733852,
          0.233344361, 0.0681339204, 0.193904549, 0.470198065,
          0.470198065, 0.470198065, 0.216876715, 0.321131229,
          0.366653413, 0.0721679255, 0.394460082, 0.0782870203,
          0.153790057, 0.0466107503, 0.0310226958, 0.0023944187,
          0.594907343, 0.594907343, 0.312587142, 0.605568349,
          0.325254381, 0.32775411, 0.0256733261, 0.007485874,
          0.00894871447, 0.0631659701, 0.206226051, 0.605568349,
          0.440888077, 0.304152399, 0.440888077, 0.155679539,
          0.373513579, 0.277047127, 0.159755185, 0.232196271,
          0.440888077, 0.0987334251, 0.163741529, 0.538849413,
          0.280876696, 0.0602950491, 0.0464639515, 0.538849413,
          0.538849413, 0.047928825, 0.36840412, 0.217693776, 0.36840412,
          0.36840412, 0.233186767, 0.283236921, 0.36840412, 0.36840412,
          0.36840412, 0.389761657, 0.147724763, 0.389761657, 0.389761657,
          0.196683615, 0.155287698, 0.389761657, 0.389761657,
          0.389761657, 0.0987334251, 0.163741529, 0.538849413,
          0.280876696, 0.0602950491, 0.0464639515, 0.538849413,
          0.538849413, 0.047928825, 0.36840412, 0.217693776, 0.36840412,
          0.36840412, 0.233186767, 0.283236921, 0.36840412, 0.36840412,
          0.36840412, 0.389761657, 0.147724763, 0.389761657, 0.389761657,
          0.196683615, 0.155287698, 0.389761657, 0.389761657,
          0.389761657, 0.0239504613, 0.0780547634, 0.492989987,
          0.492989987, 0.0825623497, 0.0262746923, 0.492989987,
          0.492989987, 0.0935231522, 0.0907627791, 0.0918353796,
          0.425434023, 0.425434023, 0.425434023, 0.0526452363,
          0.35923183, 0.425434023, 0.351116896, 0.203162938, 0.273603886,
          0.439294964, 0.371584058, 0.439294964, 0.173659384,
          0.221820921, 0.439294964, 0.288271666, 0.0438064151,
          0.177465081, 0.483738989, 0.483738989, 0.0860633701,
          0.0252008513, 0.483738989, 0.483738989, 0.133041635,
          0.065397054, 0.0394924693, 0.140346408, 0.252645403,
          0.506246924, 0.129991218, 0.560071707, 0.560071707,
          0.0670788214, 0.468202978, 0.284230322, 0.12907432,
          0.502150655, 0.502150655, 0.197501034, 0.105785877,
          0.120035701, 0.33076784, 0.0681339204, 0.193904549,
          0.470198065, 0.470198065, 0.470198065, 0.216876715,
          0.321131229, 0.366653413, 0.0721679255, 0.0543215722,
          0.0267649479, 0.0518178158, 0.154349655, 0.490161806,
          0.490161806, 0.490161806, 0.490161806, 0.0624011047,
          0.188913241, 0.0931598544, 0.554901719, 0.554901719,
          0.396299362, 0.089621827, 0.242047384, 0.302202016, 0.13878648,
          0.440888077, 0.304152399, 0.440888077, 0.155679539,
          0.373513579, 0.277047127, 0.159755185, 0.232196271,
          0.440888077, 0.383835435, 0.0429979973, 0.0535373501,
          0.0768362507, 0.237476692, 0.352224052, 0.467946023,
          0.467946023, 0.467946023, 0.318396658, 0.153598577,
          0.552264869, 0.466078639, 0.0218261946, 0.202461377,
          0.243174359, 0.266763598, 0.418959022, 0.389761657,
          0.147724763, 0.389761657, 0.389761657, 0.196683615,
          0.155287698, 0.389761657, 0.389761657, 0.389761657,
          0.122782849, 0.0802849308, 0.474271029, 0.263408005,
          0.0744574144, 0.0580570921, 0.530758619, 0.530758619,
          0.326400816, 0.120992124, 0.250871927, 0.479954094,
          0.320789158, 0.0402948298, 0.194730178, 0.479954094,
          0.479954094, 0.290023148, 0.389761657, 0.147724763,
          0.389761657, 0.389761657, 0.196683615, 0.155287698,
          0.389761657, 0.389761657, 0.389761657, 0.122782849,
          0.0802849308, 0.474271029, 0.263408005, 0.0744574144,
          0.0580570921, 0.530758619, 0.530758619, 0.326400816,
          0.120992124, 0.250871927, 0.479954094, 0.320789158,
          0.0402948298, 0.194730178, 0.479954094, 0.479954094,
          0.290023148, 0.203162938, 0.273603886, 0.439294964,
          0.371584058, 0.439294964, 0.173659384, 0.221820921,
          0.439294964, 0.288271666, 0.0527659915, 0.0874455795,
          0.421974391, 0.286007166, 0.421974391, 0.421974391,
          0.421974391, 0.421974391, 0.115072906, 0.245703042,
          0.115716264, 0.46761921, 0.0759699121, 0.0448354483,
          0.177717671, 0.470286995, 0.470286995, 0.470286995,
          0.468202978, 0.284230322, 0.12907432, 0.502150655, 0.502150655,
          0.197501034, 0.105785877, 0.120035701, 0.33076784,
          0.0927114934, 0.21615988, 0.290032476, 0.448992014,
          0.448992014, 0.448992014, 0.422922581, 0.240955651,
          0.119879216, 0.00761096925, 0.00153358164, 0.0154352151,
          0.0473169908, 0.160066634, 0.562418401, 0.562418401,
          0.562418401, 0.131460235 ]
      - [ 0.350357115, 0.418602765, 0.418602765, 0.241209567,
          0.259511441, 0.418602765, 0.418602765, 0.193816602,
          0.0951953307, 0.10804446, 0.432650715, 0.432650715,
          0.143593505, 0.0786293224, 0.432650715, 0.432650715,
          0.432650715, 0.145841762, 0.388521075, 0.388521075,
          0.388521075, 0.081280753, 0.0929971784, 0.274174929,
          0.388521075, 0.388521075, 0.388521075, 0.157388031, 0.27275613,
          0.501198232, 0.501198232, 0.136596516, 0.147294939,
          0.501198232, 0.293146819, 0.126250401, 0.218787998,
          0.157122448, 0.435816109, 0.435816109, 0.435816109,
          0.0532185212, 0.225027323, 0.396018028, 0.378132433,
          0.35518682, 0.35518682, 0.303854108, 0.35518682, 0.35518682,
          0.35518682, 0.144983143, 0.35518682, 0.35518682, 0.166482359,
          0.417714417, 0.43936944, 0.153617382, 0.353203446,
          0.0298424494, 0.43936944, 0.43936944, 0.255012751, 0.45281893,
          0.45281893, 0.21165134, 0.45281893, 0.45281893, 0.146751225,
          0.00830330141, 0.013615923, 0.329712838, 0.504936337,
          0.175527796, 0.0184160061, 0.2874102, 0.504936337, 0.340558082,
          0.00824582111, 0.0165331699, 0.504936337, 0.166482359,
          0.417714417, 0.43936944, 0.153617382, 0.353203446,
          0.0298424494, 0.43936944, 0.43936944, 0.255012751, 0.45281893,
          0.45281893, 0.21165134, 0.45281893, 0.45281893, 0.146751225,
          0.00830330141, 0.013615923, 0.329712838, 0.504936337,
          0.175527796, 0.0184160061, 0.2874102, 0.504936337, 0.340558082,
          0.00824582111, 0.0165331699, 0.504936337, 0.1793136,
          0.390672147, 0.390672147, 0.347995758, 0.281556606,
          0.0210954826, 0.390672147, 0.390672147, 0.390672147,
          0.405939013, 0.405939013, 0.405939013, 0.0755351707,
          0.12103714, 0.405939013, 0.405939013, 0.382674485,
          0.0722293481, 0.383451998, 0.100324348, 0.0193720069,
          0.258192331, 0.539772213, 0.539772213, 0.260548174, 0.21817328,
          0.268844813, 0.0470776707, 0.197405145, 0.456890583,
          0.456890583, 0.341091186, 0.0260071401, 0.047280848,
          0.456890583, 0.456890583, 0.0407357849, 0.192456827,
          0.470138073, 0.470138073, 0.0896019638, 0.0581912026,
          0.247126013, 0.470138073, 0.470138073, 0.445220679,
          0.014615681, 0.0405091569, 0.436640382, 0.445220679,
          0.0637625679, 0.0780511275, 0.445220679, 0.445220679,
          0.388521075, 0.388521075, 0.388521075, 0.081280753,
          0.0929971784, 0.274174929, 0.388521075, 0.388521075,
          0.388521075, 0.23854354, 0.416254759, 0.416254759, 0.416254759,
          0.0124279559, 0.0110958945, 0.416254759, 0.416254759,
          0.268925637, 0.0297824647, 0.198739514, 0.478646129,
          0.478646129, 0.0831545219, 0.0456899591, 0.478646129,
          0.478646129, 0.171534419, 0.35518682, 0.35518682, 0.303854108,
          0.35518682, 0.35518682, 0.35518682, 0.144983143, 0.35518682,
          0.35518682, 0.347789109, 0.347789109, 0.179036468, 0.347789109,
          0.347789109, 0.347789109, 0.347789109, 0.343176633,
          0.347789109, 0.151135609, 0.268680096, 0.20367007,
          0.0346956588, 0.101782784, 0.530189991, 0.530189991,
          0.530189991, 0.0576613657, 0.504936337, 0.175527796,
          0.0184160061, 0.2874102, 0.504936337, 0.340558082,
          0.00824582111, 0.0165331699, 0.504936337, 0.434567302,
          0.000606063171, 0.00965580158, 0.364117563, 0.434567302,
          0.326296538, 0.0334574133, 0.434567302, 0.434567302,
          0.154761091, 0.0183148645, 0.0325122066, 0.074977465,
          0.236729816, 0.485607117, 0.447996527, 0.485607117,
          0.485607117, 0.504936337, 0.175527796, 0.0184160061, 0.2874102,
          0.504936337, 0.340558082, 0.00824582111, 0.0165331699,
          0.504936337, 0.434567302, 0.000606063171, 0.00965580158,
          0.364117563, 0.434567302, 0.326296538, 0.0334574133,
          0.434567302, 0.434567302, 0.154761091, 0.0183148645,
          0.0325122066, 0.074977465, 0.236729816, 0.485607117,
          0.447996527, 0.485607117, 0.485607117, 0.383451998,
          0.100324348, 0.0193720069, 0.258192331, 0.539772213,
          0.539772213, 0.260548174, 0.21817328, 0.268844813, 0.127104804,
          0.235834792, 0.424324036, 0.424324036, 0.424324036,
          0.0669320002, 0.138755783, 0.424324036, 0.424324036,
          0.0313443094, 0.163088083, 0.404064327, 0.264020294,
          0.0113279372, 0.108819969, 0.533834875, 0.533834875,
          0.390108168, 0.445220679, 0.014615681, 0.0405091569,
          0.436640382, 0.445220679, 0.0637625679, 0.0780511275,
          0.445220679, 0.445220679, 0.404624134, 0.404624134,
          0.380830109, 0.0963565707, 0.33954677, 0.404624134,
          0.262309849, 0.0515801497, 0.404624134, 0.412344158,
          0.445696443, 0.259645849, 0.0356707312, 0.11708945,
          0.445696443, 0.445696443, 0.380164891, 0.0515824035 ]
      - [ 0.414022416, 0.414022416, 0.408445746, 0.21528782, 0.188456014,
          0.414022416, 0.414022416, 0.12739709, 0.212798864, 0.360638469,
          0.321716905, 0.360638469, 0.360638469, 0.360638469,
          0.360638469, 0.325201273, 0.0823313296, 0.360638469,
          0.314389527, 0.0408385508, 0.141425997, 0.510912657,
          0.30162397, 0.0106242485, 0.0142210508, 0.510912657,
          0.510912657, 0.279700369, 0.381074369, 0.381074369,
          0.261365652, 0.109543726, 0.334006667, 0.381074369,
          0.381074369, 0.381074369, 0.0508907437, 0.416210622,
          0.416210622, 0.416210622, 0.102245703, 0.262865871,
          0.416210622, 0.416210622, 0.218044087, 0.0843434781,
          0.380315036, 0.452388048, 0.452388048, 0.133420184,
          0.0312882476, 0.0795506462, 0.452388048, 0.452388048,
          0.0303661022, 0.485227555, 0.485227555, 0.20740743,
          0.0267226603, 0.0262314994, 0.485227555, 0.485227555,
          0.0896010995, 0.145050108, 0.208831802, 0.443342775,
          0.443342775, 0.155167609, 0.0611071214, 0.443342775,
          0.443342775, 0.3419047, 0.178821579, 0.0587778054, 0.47232905,
          0.551830709, 0.551830709, 0.115729712, 0.0920256153,
          0.123404957, 0.299729109, 0.0303661022, 0.485227555,
          0.485227555, 0.20740743, 0.0267226603, 0.0262314994,
          0.485227555, 0.485227555, 0.0896010995, 0.145050108,
          0.208831802, 0.443342775, 0.443342775, 0.155167609,
          0.0611071214, 0.443342775, 0.443342775, 0.3419047, 0.178821579,
          0.0587778054, 0.47232905, 0.551830709, 0.551830709,
          0.115729712, 0.0920256153, 0.123404957, 0.299729109,
          0.0316549167, 0.103245504, 0.549445093, 0.549445093,
          0.0100403773, 0.0157545153, 0.252817929, 0.549445093,
          0.113647997, 0.468756258, 0.0399680845, 0.230568662,
          0.445619732, 0.167644203, 0.0465320535, 0.229160696,
          0.468756258, 0.468756258, 0.453911066, 0.036736384,
          0.110783279, 0.381963789, 0.453911066, 0.10693752,
          0.0192471594, 0.453911066, 0.453911066, 0.00742985168,
          0.000327674352, 0.421905845, 0.511404276, 0.0579794161,
          0.0153740011, 0.169208795, 0.511404276, 0.511404276,
          0.088941738, 0.00155957497, 0.0883282125, 0.583149433,
          0.583149433, 0.0154454894, 0.00124879426, 0.191717207,
          0.511214256, 0.493504345, 0.0489660725, 0.0137304328,
          0.215789765, 0.493504345, 0.493504345, 0.0366882086,
          0.247432023, 0.390783131, 0.314389527, 0.0408385508,
          0.141425997, 0.510912657, 0.30162397, 0.0106242485,
          0.0142210508, 0.510912657, 0.510912657, 0.0170241538,
          0.0116817672, 0.26095134, 0.463657856, 0.254243642,
          0.0478814133, 0.463657856, 0.463657856, 0.463657856,
          0.277424097, 0.311975479, 0.379388303, 0.379388303,
          0.379388303, 0.261065185, 0.379388303, 0.379388303,
          0.184619844, 0.0843434781, 0.380315036, 0.452388048,
          0.452388048, 0.133420184, 0.0312882476, 0.0795506462,
          0.452388048, 0.452388048, 0.0119844237, 0.021675149,
          0.0493872724, 0.257739037, 0.129089937, 0.0455346219,
          0.558626771, 0.604628503, 0.477602184, 0.15048489, 0.422170848,
          0.422170848, 0.368284941, 0.205304936, 0.172365785,
          0.422170848, 0.422170848, 0.229630738, 0.178821579,
          0.0587778054, 0.47232905, 0.551830709, 0.551830709,
          0.115729712, 0.0920256153, 0.123404957, 0.299729109,
          0.0916254297, 0.160594806, 0.271277696, 0.466134548,
          0.466134548, 0.092024222, 0.466134548, 0.466134548,
          0.0998619944, 0.374295324, 0.374295324, 0.374295324,
          0.306657374, 0.328411162, 0.0423583202, 0.374295324,
          0.374295324, 0.303461164, 0.178821579, 0.0587778054,
          0.47232905, 0.551830709, 0.551830709, 0.115729712,
          0.0920256153, 0.123404957, 0.299729109, 0.0916254297,
          0.160594806, 0.271277696, 0.466134548, 0.466134548,
          0.092024222, 0.466134548, 0.466134548, 0.0998619944,
          0.374295324, 0.374295324, 0.374295324, 0.306657374,
          0.328411162, 0.0423583202, 0.374295324, 0.374295324,
          0.303461164, 0.453911066, 0.036736384, 0.110783279,
          0.381963789, 0.453911066, 0.10693752, 0.0192471594,
          0.453911066, 0.453911066, 0.282923877, 0.338484168,
          0.338484168, 0.338484168, 0.338484168, 0.338484168,
          0.338484168, 0.338484168, 0.338484168, 0.107640497,
          0.369748056, 0.392784923, 0.392784923, 0.392784923,
          0.362543941, 0.392784923, 0.303818047, 0.0831408352,
          0.493504345, 0.0489660725, 0.0137304328, 0.215789765,
          0.493504345, 0.493504345, 0.0366882086, 0.247432023,
          0.390783131, 0.390321761, 0.390321761, 0.0661518648,
          0.0639323741, 0.390321761, 0.390321761, 0.390321761,
          0.390321761, 0.271165639, 0.430308074, 0.430308074,
          0.430308074, 0.153562382, 0.106925137, 0.163635075,
          0.430308074, 0.430308074, 0.0899196789 ]
      - [ 0.419559538, 0.419559538, 0.419559538, 0.0123856505,
          0.0367483497, 0.394230545, 0.419559538, 0.227968588,
          0.287744433, 0.330533653, 0.460460424, 0.362446487,
          0.0160785988, 0.254397511, 0.460460424, 0.460460424,
          0.138090327, 0.186182201, 0.0616945662, 0.331924617,
          0.210241333, 0.433314472, 0.433314472, 0.433314472,
          0.433314472, 0.267703474, 0.121569142, 0.334143311,
          0.506097019, 0.279686302, 0.00937327649, 0.0232988987,
          0.506097019, 0.506097019, 0.184372008, 0.0451996811,
          0.274337381, 0.451779336, 0.188724458, 0.0684845895,
          0.15809235, 0.54702431, 0.54702431, 0.187274054, 0.12778379,
          0.315873653, 0.372862428, 0.344354033, 0.0722825751,
          0.330786258, 0.372862428, 0.372862428, 0.327367008,
          0.372862428, 0.156321213, 0.499871641, 0.263639718,
          0.013116817, 0.0207322054, 0.569385052, 0.569385052,
          0.031471096, 0.0225705449, 0.379555434, 0.379555434,
          0.298446983, 0.125161782, 0.296343297, 0.379555434,
          0.379555434, 0.288688272, 0.379555434, 0.374782562,
          0.374782562, 0.374782562, 0.154072985, 0.30937469, 0.335202128,
          0.249267235, 0.374782562, 0.374782562, 0.156321213,
          0.499871641, 0.263639718, 0.013116817, 0.0207322054,
          0.569385052, 0.569385052, 0.031471096, 0.0225705449,
          0.379555434, 0.379555434, 0.298446983, 0.125161782,
          0.296343297, 0.379555434, 0.379555434, 0.288688272,
          0.379555434, 0.374782562, 0.374782562, 0.374782562,
          0.154072985, 0.30937469, 0.335202128, 0.249267235, 0.374782562,
          0.374782562, 0.0681189373, 0.49629733, 0.49629733,
          0.0358934291, 0.0437700488, 0.49629733, 0.49629733,
          0.0399498269, 0.0189438574, 0.282573462, 0.488319248,
          0.488319248, 0.421093315, 0.134496525, 0.129495606,
          0.260847837, 0.283841819, 0.278528005, 0.0643837154,
          0.352555066, 0.488063574, 0.248745322, 0.232569769,
          0.0365554951, 0.488063574, 0.488063574, 0.186460555,
          0.317455322, 0.463724941, 0.463724941, 0.0526173525,
          0.155560791, 0.463724941, 0.463724941, 0.0667046532,
          0.0548608117, 0.465199083, 0.465199083, 0.465199083,
          0.323068857, 0.0804616436, 0.0650316998, 0.144234776,
          0.156154469, 0.431112975, 0.463970393, 0.339009762,
          0.405110806, 0.117886096, 0.174665973, 0.0369739793,
          0.334229261, 0.358196586, 0.463970393, 0.0616945662,
          0.331924617, 0.210241333, 0.433314472, 0.433314472,
          0.433314472, 0.433314472, 0.267703474, 0.121569142,
          0.0560140871, 0.326300442, 0.538326442, 0.538326442,
          0.424387604, 0.0306471828, 0.120718762, 0.316286683,
          0.098840788, 0.175918892, 0.0681421608, 0.228834331,
          0.501726806, 0.242036194, 0.11707817, 0.501726806, 0.501726806,
          0.282054722, 0.315873653, 0.372862428, 0.344354033,
          0.0722825751, 0.330786258, 0.372862428, 0.372862428,
          0.327367008, 0.372862428, 0.300943464, 0.368437409,
          0.368437409, 0.368437409, 0.303503126, 0.368437409,
          0.362386018, 0.294586748, 0.229234397, 0.0998171568,
          0.140434891, 0.5128178, 0.5128178, 0.414939642, 0.126201436,
          0.441566199, 0.233029395, 0.0429394059, 0.374782562,
          0.374782562, 0.374782562, 0.154072985, 0.30937469, 0.335202128,
          0.249267235, 0.374782562, 0.374782562, 0.426124096,
          0.426124096, 0.426124096, 0.0902184471, 0.0698838234,
          0.137479082, 0.426124096, 0.426124096, 0.236454993,
          0.116278663, 0.432733506, 0.432733506, 0.432733506,
          0.115130819, 0.0445393659, 0.432733506, 0.432733506,
          0.17500402, 0.374782562, 0.374782562, 0.374782562, 0.154072985,
          0.30937469, 0.335202128, 0.249267235, 0.374782562, 0.374782562,
          0.426124096, 0.426124096, 0.426124096, 0.0902184471,
          0.0698838234, 0.137479082, 0.426124096, 0.426124096,
          0.236454993, 0.116278663, 0.432733506, 0.432733506,
          0.432733506, 0.115130819, 0.0445393659, 0.432733506,
          0.432733506, 0.17500402, 0.0643837154, 0.352555066,
          0.488063574, 0.248745322, 0.232569769, 0.0365554951,
          0.488063574, 0.488063574, 0.186460555, 0.0276286528,
          0.283729851, 0.474053532, 0.295754433, 0.0647731572,
          0.381777167, 0.474053532, 0.474053532, 0.0489769839,
          0.0419902764, 0.316720754, 0.423386633, 0.386129856,
          0.141775429, 0.423386633, 0.423386633, 0.423386633,
          0.0864525586, 0.463970393, 0.339009762, 0.405110806,
          0.117886096, 0.174665973, 0.0369739793, 0.334229261,
          0.358196586, 0.463970393, 0.413404435, 0.413404435,
          0.324952602, 0.0843461454, 0.10808409, 0.130243376,
          0.413404435, 0.413404435, 0.413404435, 0.433272183,
          0.433272183, 0.407144696, 0.106991187, 0.0206439663,
          0.0935893878, 0.433272183, 0.433272183, 0.241606712 ]
      - [ 0.0986719131, 0.25946632, 0.547261357, 0.170277029,
          0.530411959, 0.547261357, 0.064954631, 0.0162622556,
          0.0605909564, 0.0494060144, 0.0899846852, 0.184232906,
          0.0369628742, 0.687782645, 0.687782645, 0.00741603924,
          0.0149434879, 0.0303236209, 0.389942348, 0.389942348,
          0.389942348, 0.0902582854, 0.389942348, 0.389942348,
          0.175578177, 0.211660266, 0.389942348, 0.0976263583,
          0.156365916, 0.0832618475, 0.0527559929, 0.20517242,
          0.67240876, 0.67240876, 0.0343673453, 0.0452369228,
          0.0952921137, 0.491289049, 0.491289049, 0.175624251,
          0.449304819, 0.491289049, 0.13958478, 0.0711076856,
          0.0682568774, 0.0444444567, 0.58574003, 0.58574003,
          0.0250617452, 0.0114875371, 0.016246397, 0.501634061,
          0.227626368, 0.0389692001, 0.253879339, 0.192128077,
          0.256702214, 0.118558705, 0.0165109038, 0.428752869,
          0.55317843, 0.55317843, 0.130543277, 0.424399436, 0.424399436,
          0.424399436, 0.231639504, 0.0372112915, 0.0330858193,
          0.197610781, 0.424399436, 0.424399436, 0.112382188,
          0.547717333, 0.623563409, 0.0577708595, 0.00986871962,
          0.00757783139, 0.387295067, 0.284569621, 0.240518585,
          0.253879339, 0.192128077, 0.256702214, 0.118558705,
          0.0165109038, 0.428752869, 0.55317843, 0.55317843, 0.130543277,
          0.424399436, 0.424399436, 0.424399436, 0.231639504,
          0.0372112915, 0.0330858193, 0.197610781, 0.424399436,
          0.424399436, 0.112382188, 0.547717333, 0.623563409,
          0.0577708595, 0.00986871962, 0.00757783139, 0.387295067,
          0.284569621, 0.240518585, 0.0325733237, 0.0422194675,
          0.275763959, 0.119088657, 0.110542685, 0.0865271762,
          0.627982259, 0.654382169, 0.241062909, 0.233750001,
          0.427497655, 0.494308382, 0.456956118, 0.0191478487,
          0.0130220279, 0.0582477674, 0.237171471, 0.494308382,
          0.41213122, 0.41213122, 0.41213122, 0.356227458, 0.0263098236,
          0.0044042659, 0.137886167, 0.41213122, 0.41213122, 0.065179348,
          0.115096867, 0.506131291, 0.0322427899, 0.0299539044,
          0.00761859957, 0.0463969149, 0.598419845, 0.598419845,
          0.119639881, 0.055258017, 0.49297294, 0.49297294, 0.0686163679,
          0.00282544107, 0.0300619602, 0.49297294, 0.49297294,
          0.134278923, 0.0151800178, 0.169316098, 0.597365975,
          0.455084473, 0.180861622, 0.0885547847, 0.10027504, 0.57667166,
          0.389942348, 0.389942348, 0.389942348, 0.0902582854,
          0.389942348, 0.389942348, 0.175578177, 0.211660266,
          0.389942348, 0.173669547, 0.0858037099, 0.0754953846,
          0.386119992, 0.43304491, 0.230761707, 0.43304491, 0.43304491,
          0.43304491, 0.0832729638, 0.158224449, 0.140309021,
          0.491327018, 0.491327018, 0.0435760729, 0.451458007,
          0.491327018, 0.116262555, 0.0444444567, 0.58574003, 0.58574003,
          0.0250617452, 0.0114875371, 0.016246397, 0.501634061,
          0.227626368, 0.0389692001, 0.0154108889, 0.103928417,
          0.325282484, 0.0265639368, 0.0223473515, 0.0167173259,
          0.660571456, 0.660571456, 0.048623953, 0.0760393143,
          0.240495399, 0.406302035, 0.406302035, 0.406302035,
          0.279283524, 0.406302035, 0.406302035, 0.170044541,
          0.112382188, 0.547717333, 0.623563409, 0.0577708595,
          0.00986871962, 0.00757783139, 0.387295067, 0.284569621,
          0.240518585, 0.373803109, 0.337231129, 0.286027431,
          0.0175492391, 0.0301167183, 0.0754648, 0.557430685,
          0.557430685, 0.175499886, 0.437109798, 0.424651653,
          0.137299761, 0.0987089202, 0.0529017858, 0.140182957,
          0.437109798, 0.437109798, 0.437109798, 0.112382188,
          0.547717333, 0.623563409, 0.0577708595, 0.00986871962,
          0.00757783139, 0.387295067, 0.284569621, 0.240518585,
          0.373803109, 0.337231129, 0.286027431, 0.0175492391,
          0.0301167183, 0.0754648, 0.557430685, 0.557430685, 0.175499886,
          0.437109798, 0.424651653, 0.137299761, 0.0987089202,
          0.0529017858, 0.140182957, 0.437109798, 0.437109798,
          0.437109798, 0.41213122, 0.41213122, 0.41213122, 0.356227458,
          0.0263098236, 0.0044042659, 0.137886167, 0.41213122,
          0.41213122, 0.404198408, 0.404198408, 0.113763452,
          0.0387340821, 0.0355188884, 0.404198408, 0.404198408,
          0.404198408, 0.404198408, 0.305064172, 0.298640877,
          0.246777847, 0.121491984, 0.0679961294, 0.472068369,
          0.472068369, 0.465141833, 0.265889704, 0.134278923,
          0.0151800178, 0.169316098, 0.597365975, 0.455084473,
          0.180861622, 0.0885547847, 0.10027504, 0.57667166, 0.419516414,
          0.133549795, 0.0198539216, 0.341794223, 0.28250888,
          0.632053256, 0.409120739, 0.0322289392, 0.186872616,
          0.429168195, 0.429168195, 0.150624797, 0.115768716,
          0.125813931, 0.429168195, 0.429168195, 0.15121755, 0.429168195 ]
      - [ 0.536467195, 0.536467195, 0.0870403945, 0.0159890503,
          0.127236754, 0.321523577, 0.0781927183, 0.096625559,
          0.525546908, 0.472316355, 0.472316355, 0.229952738,
          0.0428750776, 0.102890745, 0.330607414, 0.326269776,
          0.212080076, 0.472316355, 0.378382087, 0.310325742,
          0.260493904, 0.154312342, 0.303946376, 0.378382087,
          0.378382087, 0.378382087, 0.378382087, 0.395800322,
          0.395800322, 0.395800322, 0.0548556261, 0.123054728,
          0.395800322, 0.395800322, 0.3781192, 0.227223754, 0.273747325,
          0.387996048, 0.387996048, 0.387996048, 0.162636146,
          0.351446629, 0.387996048, 0.387996048, 0.136074603,
          0.374396652, 0.374396652, 0.278167099, 0.162927881,
          0.316426277, 0.302237123, 0.374396652, 0.374396652,
          0.374396652, 0.10635259, 0.197247431, 0.282520503,
          0.0952715352, 0.0281512439, 0.187775418, 0.637474, 0.637474,
          0.0756648853, 0.42136535, 0.42136535, 0.42136535, 0.42136535,
          0.42136535, 0.219282225, 0.114690021, 0.166814506, 0.137773395,
          0.414764732, 0.359771043, 0.110804029, 0.414764732,
          0.414764732, 0.39651522, 0.0856819898, 0.130363956,
          0.395593375, 0.10635259, 0.197247431, 0.282520503,
          0.0952715352, 0.0281512439, 0.187775418, 0.637474, 0.637474,
          0.0756648853, 0.42136535, 0.42136535, 0.42136535, 0.42136535,
          0.42136535, 0.219282225, 0.114690021, 0.166814506, 0.137773395,
          0.414764732, 0.359771043, 0.110804029, 0.414764732,
          0.414764732, 0.39651522, 0.0856819898, 0.130363956,
          0.395593375, 0.0390266366, 0.107843429, 0.219679102,
          0.0570542328, 0.0113639953, 0.054184109, 0.55979079,
          0.58254832, 0.523184776, 0.410986423, 0.452702194, 0.452702194,
          0.201205969, 0.0159201957, 0.265925914, 0.452702194,
          0.294626176, 0.116154581, 0.39785406, 0.240000308,
          0.0470991209, 0.286635607, 0.39785406, 0.39785406, 0.39785406,
          0.250214994, 0.39785406, 0.012574112, 0.0260615982,
          0.0697155967, 0.491369784, 0.491369784, 0.0853733569,
          0.127785638, 0.491369784, 0.491369784, 0.213315293,
          0.275044918, 0.446662486, 0.446662486, 0.19317399,
          0.0381726213, 0.19386223, 0.446662486, 0.446662486,
          0.436151028, 0.0259578228, 0.110091493, 0.436151028,
          0.436151028, 0.158292159, 0.191450551, 0.400285721,
          0.436151028, 0.378382087, 0.310325742, 0.260493904,
          0.154312342, 0.303946376, 0.378382087, 0.378382087,
          0.378382087, 0.378382087, 0.399934441, 0.399934441,
          0.399934441, 0.399934441, 0.177574843, 0.0216570031,
          0.0657062158, 0.399934441, 0.399934441, 0.283295214,
          0.243034765, 0.251062989, 0.383990973, 0.383990973,
          0.237831578, 0.383990973, 0.383990973, 0.383990973,
          0.374396652, 0.374396652, 0.278167099, 0.162927881,
          0.316426277, 0.302237123, 0.374396652, 0.374396652,
          0.374396652, 0.362280637, 0.362280637, 0.362280637,
          0.362280637, 0.183138266, 0.23564592, 0.346162498, 0.362280637,
          0.362280637, 0.051822599, 0.178381309, 0.278506637,
          0.463148743, 0.146597639, 0.463148743, 0.463148743,
          0.463148743, 0.0615185201, 0.414764732, 0.359771043,
          0.110804029, 0.414764732, 0.414764732, 0.39651522,
          0.0856819898, 0.130363956, 0.395593375, 0.396545738,
